
# Options: -R -N 3 

# J48 pruned tree
# ------------------

c.TxtDns <= 15.6667
|   p.TxtDns <= 15.3333
|   |   n.TxtDns <= 20.6667
|   |   |   c.InH = 0
|   |   |   |   c.LnkDns <= 0.2069
|   |   |   |   |   n.InP = 0
|   |   |   |   |   |   c.CapWrdRtio <= 1.2
|   |   |   |   |   |   |   n.CapWrdRtio <= 1.0909
|   |   |   |   |   |   |   |   p.Wrds <= 5
|   |   |   |   |   |   |   |   |   p.CapWrdRtio <= 1.0909
|   |   |   |   |   |   |   |   |   |   p.TxtDnsQt <= 3.7273
|   |   |   |   |   |   |   |   |   |   |   p.TxtDns <= 2.75
|   |   |   |   |   |   |   |   |   |   |   |   p.InP = 0
|   |   |   |   |   |   |   |   |   |   |   |   |   c.LnkDns <= 0.1429
|   |   |   |   |   |   |   |   |   |   |   |   |   |   c.CapStrtWrdRtio <= 0.2609
|   |   |   |   |   |   |   |   |   |   |   |   |   |   |   p.WrdsQt <= 2.25: 0 (1580.0/75.0)
|   |   |   |   |   |   |   |   |   |   |   |   |   |   |   p.WrdsQt > 2.25
|   |   |   |   |   |   |   |   |   |   |   |   |   |   |   |   n.TxtDns <= 6.5
|   |   |   |   |   |   |   |   |   |   |   |   |   |   |   |   |   n.Chars <= 67
|   |   |   |   |   |   |   |   |   |   |   |   |   |   |   |   |   |   n.AvgWrdLn <= 9.5
|   |   |   |   |   |   |   |   |   |   |   |   |   |   |   |   |   |   |   p.AvgWrdLn <= 8.5
|   |   |   |   |   |   |   |   |   |   |   |   |   |   |   |   |   |   |   |   p.WrdsQt <= 3.25: 0 (46.0)
|   |   |   |   |   |   |   |   |   |   |   |   |   |   |   |   |   |   |   |   p.WrdsQt > 3.25
|   |   |   |   |   |   |   |   |   |   |   |   |   |   |   |   |   |   |   |   |   p.FlstpRtio <= 0.25: 2 (7.0)
|   |   |   |   |   |   |   |   |   |   |   |   |   |   |   |   |   |   |   |   |   p.FlstpRtio > 0.25: 0 (7.0)
|   |   |   |   |   |   |   |   |   |   |   |   |   |   |   |   |   |   |   p.AvgWrdLn > 8.5: 2 (7.0)
|   |   |   |   |   |   |   |   |   |   |   |   |   |   |   |   |   |   n.AvgWrdLn > 9.5: 1 (7.0/1.0)
|   |   |   |   |   |   |   |   |   |   |   |   |   |   |   |   |   n.Chars > 67: 5 (3.0)
|   |   |   |   |   |   |   |   |   |   |   |   |   |   |   |   n.TxtDns > 6.5: 5 (18.0/3.0)
|   |   |   |   |   |   |   |   |   |   |   |   |   |   c.CapStrtWrdRtio > 0.2609
|   |   |   |   |   |   |   |   |   |   |   |   |   |   |   n.TxtDns <= 10.6
|   |   |   |   |   |   |   |   |   |   |   |   |   |   |   |   c.FlstpRtio <= 0.4464
|   |   |   |   |   |   |   |   |   |   |   |   |   |   |   |   |   n.TxtDnsQt <= 0.2553: 0 (168.0/9.0)
|   |   |   |   |   |   |   |   |   |   |   |   |   |   |   |   |   n.TxtDnsQt > 0.2553
|   |   |   |   |   |   |   |   |   |   |   |   |   |   |   |   |   |   n.CapStrtWrdRtio <= 0.5357
|   |   |   |   |   |   |   |   |   |   |   |   |   |   |   |   |   |   |   p.TxtDnsQt <= 1.25: 0 (1608.0/13.0)
|   |   |   |   |   |   |   |   |   |   |   |   |   |   |   |   |   |   |   p.TxtDnsQt > 1.25
|   |   |   |   |   |   |   |   |   |   |   |   |   |   |   |   |   |   |   |   c.Wrds <= 4
|   |   |   |   |   |   |   |   |   |   |   |   |   |   |   |   |   |   |   |   |   n.FlstpRtio <= 0.5789
|   |   |   |   |   |   |   |   |   |   |   |   |   |   |   |   |   |   |   |   |   |   c.CapWrdRtio <= 0.4118: 0 (327.0/4.0)
|   |   |   |   |   |   |   |   |   |   |   |   |   |   |   |   |   |   |   |   |   |   c.CapWrdRtio > 0.4118
|   |   |   |   |   |   |   |   |   |   |   |   |   |   |   |   |   |   |   |   |   |   |   c.CapStrtWrdRtio <= 0.75: 0 (65.0)
|   |   |   |   |   |   |   |   |   |   |   |   |   |   |   |   |   |   |   |   |   |   |   c.CapStrtWrdRtio > 0.75: 2 (5.0/1.0)
|   |   |   |   |   |   |   |   |   |   |   |   |   |   |   |   |   |   |   |   |   n.FlstpRtio > 0.5789: 0 (8.0/2.0)
|   |   |   |   |   |   |   |   |   |   |   |   |   |   |   |   |   |   |   |   c.Wrds > 4: 1 (17.0/6.0)
|   |   |   |   |   |   |   |   |   |   |   |   |   |   |   |   |   |   n.CapStrtWrdRtio > 0.5357: 0 (7281.0/24.0)
|   |   |   |   |   |   |   |   |   |   |   |   |   |   |   |   c.FlstpRtio > 0.4464: 0 (103.0/4.0)
|   |   |   |   |   |   |   |   |   |   |   |   |   |   |   n.TxtDns > 10.6: 0 (350.0/11.0)
|   |   |   |   |   |   |   |   |   |   |   |   |   c.LnkDns > 0.1429: 0 (55.0/17.0)
|   |   |   |   |   |   |   |   |   |   |   |   p.InP = 1: 0 (137.0/31.0)
|   |   |   |   |   |   |   |   |   |   |   p.TxtDns > 2.75
|   |   |   |   |   |   |   |   |   |   |   |   n.LnkDns <= 0.0972
|   |   |   |   |   |   |   |   |   |   |   |   |   n.TxtDns <= 5.9
|   |   |   |   |   |   |   |   |   |   |   |   |   |   p.Chars <= 63
|   |   |   |   |   |   |   |   |   |   |   |   |   |   |   c.Chars <= 59
|   |   |   |   |   |   |   |   |   |   |   |   |   |   |   |   p.TxtDnsQt <= 2.3636
|   |   |   |   |   |   |   |   |   |   |   |   |   |   |   |   |   c.CapStrtWrdRtio <= 0.5278
|   |   |   |   |   |   |   |   |   |   |   |   |   |   |   |   |   |   p.CapWrdRtio <= 0.3661
|   |   |   |   |   |   |   |   |   |   |   |   |   |   |   |   |   |   |   p.InH = 0
|   |   |   |   |   |   |   |   |   |   |   |   |   |   |   |   |   |   |   |   c.WrdsQt <= 0.2069: 0 (44.0/12.0)
|   |   |   |   |   |   |   |   |   |   |   |   |   |   |   |   |   |   |   |   c.WrdsQt > 0.2069
|   |   |   |   |   |   |   |   |   |   |   |   |   |   |   |   |   |   |   |   |   p.CapStrtWrdRtio <= 0.3654
|   |   |   |   |   |   |   |   |   |   |   |   |   |   |   |   |   |   |   |   |   |   n.CapWrdRtio <= 0.2857
|   |   |   |   |   |   |   |   |   |   |   |   |   |   |   |   |   |   |   |   |   |   |   n.WrdsQt <= 8.5
|   |   |   |   |   |   |   |   |   |   |   |   |   |   |   |   |   |   |   |   |   |   |   |   c.AvgWrdLn <= 7.8333
|   |   |   |   |   |   |   |   |   |   |   |   |   |   |   |   |   |   |   |   |   |   |   |   |   c.TxtDns <= 4.5
|   |   |   |   |   |   |   |   |   |   |   |   |   |   |   |   |   |   |   |   |   |   |   |   |   |   c.Chars <= 26
|   |   |   |   |   |   |   |   |   |   |   |   |   |   |   |   |   |   |   |   |   |   |   |   |   |   |   c.TxtDnsQt <= 0.875: 5 (4.0)
|   |   |   |   |   |   |   |   |   |   |   |   |   |   |   |   |   |   |   |   |   |   |   |   |   |   |   c.TxtDnsQt > 0.875
|   |   |   |   |   |   |   |   |   |   |   |   |   |   |   |   |   |   |   |   |   |   |   |   |   |   |   |   p.WrdsQt <= 0.875: 0 (111.0)
|   |   |   |   |   |   |   |   |   |   |   |   |   |   |   |   |   |   |   |   |   |   |   |   |   |   |   |   p.WrdsQt > 0.875
|   |   |   |   |   |   |   |   |   |   |   |   |   |   |   |   |   |   |   |   |   |   |   |   |   |   |   |   |   c.InP = 0
|   |   |   |   |   |   |   |   |   |   |   |   |   |   |   |   |   |   |   |   |   |   |   |   |   |   |   |   |   |   p.RelPos <= 0.653944: 0 (37.0/2.0)
|   |   |   |   |   |   |   |   |   |   |   |   |   |   |   |   |   |   |   |   |   |   |   |   |   |   |   |   |   |   p.RelPos > 0.653944
|   |   |   |   |   |   |   |   |   |   |   |   |   |   |   |   |   |   |   |   |   |   |   |   |   |   |   |   |   |   |   c.Wrds <= 2: 0 (3.0)
|   |   |   |   |   |   |   |   |   |   |   |   |   |   |   |   |   |   |   |   |   |   |   |   |   |   |   |   |   |   |   c.Wrds > 2: 5 (12.0)
|   |   |   |   |   |   |   |   |   |   |   |   |   |   |   |   |   |   |   |   |   |   |   |   |   |   |   |   |   c.InP = 1: 5 (4.0)
|   |   |   |   |   |   |   |   |   |   |   |   |   |   |   |   |   |   |   |   |   |   |   |   |   |   c.Chars > 26: 5 (10.0)
|   |   |   |   |   |   |   |   |   |   |   |   |   |   |   |   |   |   |   |   |   |   |   |   |   c.TxtDns > 4.5: 0 (260.0)
|   |   |   |   |   |   |   |   |   |   |   |   |   |   |   |   |   |   |   |   |   |   |   |   c.AvgWrdLn > 7.8333: 0 (13.0/6.0)
|   |   |   |   |   |   |   |   |   |   |   |   |   |   |   |   |   |   |   |   |   |   |   n.WrdsQt > 8.5: 5 (10.0)
|   |   |   |   |   |   |   |   |   |   |   |   |   |   |   |   |   |   |   |   |   |   n.CapWrdRtio > 0.2857
|   |   |   |   |   |   |   |   |   |   |   |   |   |   |   |   |   |   |   |   |   |   |   n.CapWrdRtio <= 0.75
|   |   |   |   |   |   |   |   |   |   |   |   |   |   |   |   |   |   |   |   |   |   |   |   p.Chars <= 12: 0 (11.0)
|   |   |   |   |   |   |   |   |   |   |   |   |   |   |   |   |   |   |   |   |   |   |   |   p.Chars > 12: 5 (47.0)
|   |   |   |   |   |   |   |   |   |   |   |   |   |   |   |   |   |   |   |   |   |   |   n.CapWrdRtio > 0.75: 0 (51.0)
|   |   |   |   |   |   |   |   |   |   |   |   |   |   |   |   |   |   |   |   |   p.CapStrtWrdRtio > 0.3654: 0 (622.0/26.0)
|   |   |   |   |   |   |   |   |   |   |   |   |   |   |   |   |   |   |   p.InH = 1: 0 (87.0/17.0)
|   |   |   |   |   |   |   |   |   |   |   |   |   |   |   |   |   |   p.CapWrdRtio > 0.3661
|   |   |   |   |   |   |   |   |   |   |   |   |   |   |   |   |   |   |   n.WrdsQt <= 4.75
|   |   |   |   |   |   |   |   |   |   |   |   |   |   |   |   |   |   |   |   p.CapStrtWrdRtio <= 0.55: 0 (149.0/5.0)
|   |   |   |   |   |   |   |   |   |   |   |   |   |   |   |   |   |   |   |   p.CapStrtWrdRtio > 0.55
|   |   |   |   |   |   |   |   |   |   |   |   |   |   |   |   |   |   |   |   |   n.CapWrdRtio <= 0.125
|   |   |   |   |   |   |   |   |   |   |   |   |   |   |   |   |   |   |   |   |   |   p.CapWrdRtio <= 0.75: 0 (6.0)
|   |   |   |   |   |   |   |   |   |   |   |   |   |   |   |   |   |   |   |   |   |   p.CapWrdRtio > 0.75: 1 (18.0/3.0)
|   |   |   |   |   |   |   |   |   |   |   |   |   |   |   |   |   |   |   |   |   n.CapWrdRtio > 0.125
|   |   |   |   |   |   |   |   |   |   |   |   |   |   |   |   |   |   |   |   |   |   c.CapWrdRtio <= 0.4118: 2 (39.0)
|   |   |   |   |   |   |   |   |   |   |   |   |   |   |   |   |   |   |   |   |   |   c.CapWrdRtio > 0.4118: 0 (9.0)
|   |   |   |   |   |   |   |   |   |   |   |   |   |   |   |   |   |   |   n.WrdsQt > 4.75: 5 (16.0/5.0)
|   |   |   |   |   |   |   |   |   |   |   |   |   |   |   |   |   c.CapStrtWrdRtio > 0.5278
|   |   |   |   |   |   |   |   |   |   |   |   |   |   |   |   |   |   c.WrdsQt <= 0.3529
|   |   |   |   |   |   |   |   |   |   |   |   |   |   |   |   |   |   |   p.WrdsQt <= 0.625: 1 (12.0)
|   |   |   |   |   |   |   |   |   |   |   |   |   |   |   |   |   |   |   p.WrdsQt > 0.625: 0 (73.0/7.0)
|   |   |   |   |   |   |   |   |   |   |   |   |   |   |   |   |   |   c.WrdsQt > 0.3529: 0 (1857.0/46.0)
|   |   |   |   |   |   |   |   |   |   |   |   |   |   |   |   p.TxtDnsQt > 2.3636: 0 (178.0/42.0)
|   |   |   |   |   |   |   |   |   |   |   |   |   |   |   c.Chars > 59: 0 (289.0/46.0)
|   |   |   |   |   |   |   |   |   |   |   |   |   |   p.Chars > 63: 0 (660.0/119.0)
|   |   |   |   |   |   |   |   |   |   |   |   |   n.TxtDns > 5.9
|   |   |   |   |   |   |   |   |   |   |   |   |   |   n.Wrds <= 16
|   |   |   |   |   |   |   |   |   |   |   |   |   |   |   c.TxtDnsQt <= 0.24: 0 (44.0/29.0)
|   |   |   |   |   |   |   |   |   |   |   |   |   |   |   c.TxtDnsQt > 0.24
|   |   |   |   |   |   |   |   |   |   |   |   |   |   |   |   p.AvgWrdLn <= 7.75
|   |   |   |   |   |   |   |   |   |   |   |   |   |   |   |   |   n.LnkDns <= 0.0312
|   |   |   |   |   |   |   |   |   |   |   |   |   |   |   |   |   |   p.TxtDnsQt <= 0.3429: 0 (34.0/11.0)
|   |   |   |   |   |   |   |   |   |   |   |   |   |   |   |   |   |   p.TxtDnsQt > 0.3429
|   |   |   |   |   |   |   |   |   |   |   |   |   |   |   |   |   |   |   n.RelPos <= 0.176623
|   |   |   |   |   |   |   |   |   |   |   |   |   |   |   |   |   |   |   |   p.RelPos <= 0.092437: 0 (25.0)
|   |   |   |   |   |   |   |   |   |   |   |   |   |   |   |   |   |   |   |   p.RelPos > 0.092437: 1 (23.0)
|   |   |   |   |   |   |   |   |   |   |   |   |   |   |   |   |   |   |   n.RelPos > 0.176623
|   |   |   |   |   |   |   |   |   |   |   |   |   |   |   |   |   |   |   |   n.Chars <= 37: 0 (212.0/79.0)
|   |   |   |   |   |   |   |   |   |   |   |   |   |   |   |   |   |   |   |   n.Chars > 37
|   |   |   |   |   |   |   |   |   |   |   |   |   |   |   |   |   |   |   |   |   c.Chars <= 17: 0 (33.0/11.0)
|   |   |   |   |   |   |   |   |   |   |   |   |   |   |   |   |   |   |   |   |   c.Chars > 17
|   |   |   |   |   |   |   |   |   |   |   |   |   |   |   |   |   |   |   |   |   |   c.InP = 0: 0 (220.0)
|   |   |   |   |   |   |   |   |   |   |   |   |   |   |   |   |   |   |   |   |   |   c.InP = 1
|   |   |   |   |   |   |   |   |   |   |   |   |   |   |   |   |   |   |   |   |   |   |   p.InP = 0: 0 (24.0)
|   |   |   |   |   |   |   |   |   |   |   |   |   |   |   |   |   |   |   |   |   |   |   p.InP = 1: 5 (7.0)
|   |   |   |   |   |   |   |   |   |   |   |   |   |   |   |   |   n.LnkDns > 0.0312: 5 (10.0/1.0)
|   |   |   |   |   |   |   |   |   |   |   |   |   |   |   |   p.AvgWrdLn > 7.75
|   |   |   |   |   |   |   |   |   |   |   |   |   |   |   |   |   p.TxtDnsQt <= 1.8333: 0 (46.0/14.0)
|   |   |   |   |   |   |   |   |   |   |   |   |   |   |   |   |   p.TxtDnsQt > 1.8333: 1 (37.0/5.0)
|   |   |   |   |   |   |   |   |   |   |   |   |   |   n.Wrds > 16: 3 (37.0/10.0)
|   |   |   |   |   |   |   |   |   |   |   |   n.LnkDns > 0.0972: 0 (5061.0/173.0)
|   |   |   |   |   |   |   |   |   |   p.TxtDnsQt > 3.7273
|   |   |   |   |   |   |   |   |   |   |   c.TxtDns <= 10.5
|   |   |   |   |   |   |   |   |   |   |   |   p.WrdsQt <= 35.5
|   |   |   |   |   |   |   |   |   |   |   |   |   n.Wrds <= 6
|   |   |   |   |   |   |   |   |   |   |   |   |   |   p.InP = 0
|   |   |   |   |   |   |   |   |   |   |   |   |   |   |   n.TxtDnsQt <= 5.5
|   |   |   |   |   |   |   |   |   |   |   |   |   |   |   |   c.TxtDnsQt <= 0.1176: 0 (32.0/7.0)
|   |   |   |   |   |   |   |   |   |   |   |   |   |   |   |   c.TxtDnsQt > 0.1176
|   |   |   |   |   |   |   |   |   |   |   |   |   |   |   |   |   p.LnkDns <= 0.875
|   |   |   |   |   |   |   |   |   |   |   |   |   |   |   |   |   |   n.InH = 0
|   |   |   |   |   |   |   |   |   |   |   |   |   |   |   |   |   |   |   p.InH = 0
|   |   |   |   |   |   |   |   |   |   |   |   |   |   |   |   |   |   |   |   c.CapWrdRtio <= 0.8571
|   |   |   |   |   |   |   |   |   |   |   |   |   |   |   |   |   |   |   |   |   n.CapWrdRtio <= 0.75
|   |   |   |   |   |   |   |   |   |   |   |   |   |   |   |   |   |   |   |   |   |   n.AvgWrdLn <= 7.8333: 0 (655.0/24.0)
|   |   |   |   |   |   |   |   |   |   |   |   |   |   |   |   |   |   |   |   |   |   n.AvgWrdLn > 7.8333
|   |   |   |   |   |   |   |   |   |   |   |   |   |   |   |   |   |   |   |   |   |   |   n.Chars <= 8
|   |   |   |   |   |   |   |   |   |   |   |   |   |   |   |   |   |   |   |   |   |   |   |   c.CapStrtWrdRtio <= 0.8333: 3 (3.0)
|   |   |   |   |   |   |   |   |   |   |   |   |   |   |   |   |   |   |   |   |   |   |   |   c.CapStrtWrdRtio > 0.8333
|   |   |   |   |   |   |   |   |   |   |   |   |   |   |   |   |   |   |   |   |   |   |   |   |   p.TxtDns <= 2.5
|   |   |   |   |   |   |   |   |   |   |   |   |   |   |   |   |   |   |   |   |   |   |   |   |   |   p.TxtDnsQt <= 7.5: 0 (9.0)
|   |   |   |   |   |   |   |   |   |   |   |   |   |   |   |   |   |   |   |   |   |   |   |   |   |   p.TxtDnsQt > 7.5
|   |   |   |   |   |   |   |   |   |   |   |   |   |   |   |   |   |   |   |   |   |   |   |   |   |   |   c.AvgWrdLn <= 6.25: 3 (5.0/1.0)
|   |   |   |   |   |   |   |   |   |   |   |   |   |   |   |   |   |   |   |   |   |   |   |   |   |   |   c.AvgWrdLn > 6.25: 0 (4.0)
|   |   |   |   |   |   |   |   |   |   |   |   |   |   |   |   |   |   |   |   |   |   |   |   |   p.TxtDns > 2.5: 0 (2.0/1.0)
|   |   |   |   |   |   |   |   |   |   |   |   |   |   |   |   |   |   |   |   |   |   |   n.Chars > 8: 0 (72.0/1.0)
|   |   |   |   |   |   |   |   |   |   |   |   |   |   |   |   |   |   |   |   |   n.CapWrdRtio > 0.75: 0 (51.0/7.0)
|   |   |   |   |   |   |   |   |   |   |   |   |   |   |   |   |   |   |   |   c.CapWrdRtio > 0.8571
|   |   |   |   |   |   |   |   |   |   |   |   |   |   |   |   |   |   |   |   |   c.CapStrtWrdRtio <= 0.5: 0 (86.0/10.0)
|   |   |   |   |   |   |   |   |   |   |   |   |   |   |   |   |   |   |   |   |   c.CapStrtWrdRtio > 0.5: 3 (11.0/1.0)
|   |   |   |   |   |   |   |   |   |   |   |   |   |   |   |   |   |   |   p.InH = 1: 0 (38.0/6.0)
|   |   |   |   |   |   |   |   |   |   |   |   |   |   |   |   |   |   n.InH = 1: 0 (35.0/8.0)
|   |   |   |   |   |   |   |   |   |   |   |   |   |   |   |   |   p.LnkDns > 0.875: 0 (18.0/7.0)
|   |   |   |   |   |   |   |   |   |   |   |   |   |   |   n.TxtDnsQt > 5.5: 0 (78.0/28.0)
|   |   |   |   |   |   |   |   |   |   |   |   |   |   p.InP = 1
|   |   |   |   |   |   |   |   |   |   |   |   |   |   |   n.TxtDnsQt <= 2.8333
|   |   |   |   |   |   |   |   |   |   |   |   |   |   |   |   p.FlstpRtio <= 0.125: 0 (105.0/14.0)
|   |   |   |   |   |   |   |   |   |   |   |   |   |   |   |   p.FlstpRtio > 0.125: 3 (14.0/2.0)
|   |   |   |   |   |   |   |   |   |   |   |   |   |   |   n.TxtDnsQt > 2.8333: 3 (16.0/7.0)
|   |   |   |   |   |   |   |   |   |   |   |   |   n.Wrds > 6: 0 (175.0/75.0)
|   |   |   |   |   |   |   |   |   |   |   |   p.WrdsQt > 35.5
|   |   |   |   |   |   |   |   |   |   |   |   |   n.Chars <= 20: 3 (8.0/3.0)
|   |   |   |   |   |   |   |   |   |   |   |   |   n.Chars > 20
|   |   |   |   |   |   |   |   |   |   |   |   |   |   c.CapStrtWrdRtio <= 0.8333
|   |   |   |   |   |   |   |   |   |   |   |   |   |   |   c.Wrds <= 2: 0 (2.0/1.0)
|   |   |   |   |   |   |   |   |   |   |   |   |   |   |   c.Wrds > 2: 5 (24.0)
|   |   |   |   |   |   |   |   |   |   |   |   |   |   c.CapStrtWrdRtio > 0.8333: 0 (7.0/2.0)
|   |   |   |   |   |   |   |   |   |   |   c.TxtDns > 10.5
|   |   |   |   |   |   |   |   |   |   |   |   p.FlstpRtio <= 0.1639: 0 (489.0/184.0)
|   |   |   |   |   |   |   |   |   |   |   |   p.FlstpRtio > 0.1639: 2 (17.0/5.0)
|   |   |   |   |   |   |   |   |   p.CapWrdRtio > 1.0909
|   |   |   |   |   |   |   |   |   |   p.LnkDns <= 0.6875
|   |   |   |   |   |   |   |   |   |   |   c.Wrds <= 9
|   |   |   |   |   |   |   |   |   |   |   |   c.TxtDns <= 6.625
|   |   |   |   |   |   |   |   |   |   |   |   |   p.CapStrtWrdRtio <= 0.7083
|   |   |   |   |   |   |   |   |   |   |   |   |   |   p.FlstpRtio <= 0.575: 0 (188.0/37.0)
|   |   |   |   |   |   |   |   |   |   |   |   |   |   p.FlstpRtio > 0.575: 3 (6.0)
|   |   |   |   |   |   |   |   |   |   |   |   |   p.CapStrtWrdRtio > 0.7083: 0 (85.0/17.0)
|   |   |   |   |   |   |   |   |   |   |   |   c.TxtDns > 6.625
|   |   |   |   |   |   |   |   |   |   |   |   |   p.CapStrtWrdRtio <= 0.5: 0 (17.0)
|   |   |   |   |   |   |   |   |   |   |   |   |   p.CapStrtWrdRtio > 0.5
|   |   |   |   |   |   |   |   |   |   |   |   |   |   p.LnkDns <= 0.15: 5 (41.0/8.0)
|   |   |   |   |   |   |   |   |   |   |   |   |   |   p.LnkDns > 0.15: 3 (6.0)
|   |   |   |   |   |   |   |   |   |   |   c.Wrds > 9: 1 (81.0/37.0)
|   |   |   |   |   |   |   |   |   |   p.LnkDns > 0.6875: 5 (31.0)
|   |   |   |   |   |   |   |   p.Wrds > 5
|   |   |   |   |   |   |   |   |   p.LnkDns <= 0.0952
|   |   |   |   |   |   |   |   |   |   p.InH = 0
|   |   |   |   |   |   |   |   |   |   |   p.RelPos <= 0.083117
|   |   |   |   |   |   |   |   |   |   |   |   n.FlstpRtio <= 0.5789: 0 (266.0/11.0)
|   |   |   |   |   |   |   |   |   |   |   |   n.FlstpRtio > 0.5789: 1 (29.0/4.0)
|   |   |   |   |   |   |   |   |   |   |   p.RelPos > 0.083117
|   |   |   |   |   |   |   |   |   |   |   |   n.CapWrdRtio <= 0.6714
|   |   |   |   |   |   |   |   |   |   |   |   |   c.TxtDnsQt <= 0.5577: 1 (27.0/14.0)
|   |   |   |   |   |   |   |   |   |   |   |   |   c.TxtDnsQt > 0.5577
|   |   |   |   |   |   |   |   |   |   |   |   |   |   p.Wrds <= 14
|   |   |   |   |   |   |   |   |   |   |   |   |   |   |   p.RelPos <= 0.864662
|   |   |   |   |   |   |   |   |   |   |   |   |   |   |   |   p.RelPos <= 0.227666: 0 (107.0/64.0)
|   |   |   |   |   |   |   |   |   |   |   |   |   |   |   |   p.RelPos > 0.227666
|   |   |   |   |   |   |   |   |   |   |   |   |   |   |   |   |   n.LnkDns <= 0.618
|   |   |   |   |   |   |   |   |   |   |   |   |   |   |   |   |   |   p.WrdsQt <= 0.6897
|   |   |   |   |   |   |   |   |   |   |   |   |   |   |   |   |   |   |   c.FlstpRtio <= 0.2667
|   |   |   |   |   |   |   |   |   |   |   |   |   |   |   |   |   |   |   |   c.Wrds <= 10
|   |   |   |   |   |   |   |   |   |   |   |   |   |   |   |   |   |   |   |   |   n.RelPos <= 0.26749: 2 (8.0/4.0)
|   |   |   |   |   |   |   |   |   |   |   |   |   |   |   |   |   |   |   |   |   n.RelPos > 0.26749
|   |   |   |   |   |   |   |   |   |   |   |   |   |   |   |   |   |   |   |   |   |   n.AvgWrdLn <= 3.2895
|   |   |   |   |   |   |   |   |   |   |   |   |   |   |   |   |   |   |   |   |   |   |   n.Wrds <= 3: 0 (6.0)
|   |   |   |   |   |   |   |   |   |   |   |   |   |   |   |   |   |   |   |   |   |   |   n.Wrds > 3: 5 (22.0)
|   |   |   |   |   |   |   |   |   |   |   |   |   |   |   |   |   |   |   |   |   |   n.AvgWrdLn > 3.2895
|   |   |   |   |   |   |   |   |   |   |   |   |   |   |   |   |   |   |   |   |   |   |   p.WrdsQt <= 0.65: 0 (268.0/30.0)
|   |   |   |   |   |   |   |   |   |   |   |   |   |   |   |   |   |   |   |   |   |   |   p.WrdsQt > 0.65: 5 (6.0)
|   |   |   |   |   |   |   |   |   |   |   |   |   |   |   |   |   |   |   |   c.Wrds > 10: 5 (63.0/14.0)
|   |   |   |   |   |   |   |   |   |   |   |   |   |   |   |   |   |   |   c.FlstpRtio > 0.2667: 2 (27.0/12.0)
|   |   |   |   |   |   |   |   |   |   |   |   |   |   |   |   |   |   p.WrdsQt > 0.6897
|   |   |   |   |   |   |   |   |   |   |   |   |   |   |   |   |   |   |   p.LnkDns <= 0.0769
|   |   |   |   |   |   |   |   |   |   |   |   |   |   |   |   |   |   |   |   p.CapStrtWrdRtio <= 0.5769
|   |   |   |   |   |   |   |   |   |   |   |   |   |   |   |   |   |   |   |   |   n.Chars <= 94
|   |   |   |   |   |   |   |   |   |   |   |   |   |   |   |   |   |   |   |   |   |   c.Wrds <= 5: 0 (94.0/55.0)
|   |   |   |   |   |   |   |   |   |   |   |   |   |   |   |   |   |   |   |   |   |   c.Wrds > 5: 2 (136.0/10.0)
|   |   |   |   |   |   |   |   |   |   |   |   |   |   |   |   |   |   |   |   |   n.Chars > 94: 0 (21.0)
|   |   |   |   |   |   |   |   |   |   |   |   |   |   |   |   |   |   |   |   p.CapStrtWrdRtio > 0.5769: 0 (72.0/16.0)
|   |   |   |   |   |   |   |   |   |   |   |   |   |   |   |   |   |   |   p.LnkDns > 0.0769: 5 (14.0)
|   |   |   |   |   |   |   |   |   |   |   |   |   |   |   |   |   n.LnkDns > 0.618: 0 (74.0/13.0)
|   |   |   |   |   |   |   |   |   |   |   |   |   |   |   p.RelPos > 0.864662: 0 (381.0/23.0)
|   |   |   |   |   |   |   |   |   |   |   |   |   |   p.Wrds > 14
|   |   |   |   |   |   |   |   |   |   |   |   |   |   |   c.CapWrdRtio <= 0.375: 2 (41.0/1.0)
|   |   |   |   |   |   |   |   |   |   |   |   |   |   |   c.CapWrdRtio > 0.375: 0 (8.0/3.0)
|   |   |   |   |   |   |   |   |   |   |   |   n.CapWrdRtio > 0.6714
|   |   |   |   |   |   |   |   |   |   |   |   |   n.CapWrdRtio <= 0.7273: 5 (31.0)
|   |   |   |   |   |   |   |   |   |   |   |   |   n.CapWrdRtio > 0.7273
|   |   |   |   |   |   |   |   |   |   |   |   |   |   p.FlstpRtio <= 0.3529
|   |   |   |   |   |   |   |   |   |   |   |   |   |   |   p.TxtDnsQt <= 0.6423: 0 (46.0/11.0)
|   |   |   |   |   |   |   |   |   |   |   |   |   |   |   p.TxtDnsQt > 0.6423
|   |   |   |   |   |   |   |   |   |   |   |   |   |   |   |   p.AvgWrdLn <= 4.3571: 5 (6.0)
|   |   |   |   |   |   |   |   |   |   |   |   |   |   |   |   p.AvgWrdLn > 4.3571: 3 (38.0)
|   |   |   |   |   |   |   |   |   |   |   |   |   |   p.FlstpRtio > 0.3529: 5 (7.0)
|   |   |   |   |   |   |   |   |   |   p.InH = 1: 3 (184.0/79.0)
|   |   |   |   |   |   |   |   |   p.LnkDns > 0.0952: 0 (1778.0/181.0)
|   |   |   |   |   |   |   n.CapWrdRtio > 1.0909
|   |   |   |   |   |   |   |   p.TxtDnsQt <= 0.1053: 0 (90.0)
|   |   |   |   |   |   |   |   p.TxtDnsQt > 0.1053
|   |   |   |   |   |   |   |   |   n.CapWrdRtio <= 1.4
|   |   |   |   |   |   |   |   |   |   n.Chars <= 21: 5 (90.0)
|   |   |   |   |   |   |   |   |   |   n.Chars > 21
|   |   |   |   |   |   |   |   |   |   |   c.TxtDns <= 3.5: 0 (9.0)
|   |   |   |   |   |   |   |   |   |   |   c.TxtDns > 3.5
|   |   |   |   |   |   |   |   |   |   |   |   p.RelPos <= 0.489051: 3 (29.0)
|   |   |   |   |   |   |   |   |   |   |   |   p.RelPos > 0.489051: 0 (17.0/6.0)
|   |   |   |   |   |   |   |   |   n.CapWrdRtio > 1.4
|   |   |   |   |   |   |   |   |   |   n.LnkDns <= 0.3529
|   |   |   |   |   |   |   |   |   |   |   n.Chars <= 17
|   |   |   |   |   |   |   |   |   |   |   |   p.InH = 0
|   |   |   |   |   |   |   |   |   |   |   |   |   p.InP = 0
|   |   |   |   |   |   |   |   |   |   |   |   |   |   p.CapWrdRtio <= 2.5
|   |   |   |   |   |   |   |   |   |   |   |   |   |   |   c.CapStrtWrdRtio <= 0.5833: 0 (113.0/3.0)
|   |   |   |   |   |   |   |   |   |   |   |   |   |   |   c.CapStrtWrdRtio > 0.5833
|   |   |   |   |   |   |   |   |   |   |   |   |   |   |   |   n.RelPos <= 0.627778
|   |   |   |   |   |   |   |   |   |   |   |   |   |   |   |   |   n.CapWrdRtio <= 2.25
|   |   |   |   |   |   |   |   |   |   |   |   |   |   |   |   |   |   c.Wrds <= 2
|   |   |   |   |   |   |   |   |   |   |   |   |   |   |   |   |   |   |   n.AvgWrdLn <= 7.5
|   |   |   |   |   |   |   |   |   |   |   |   |   |   |   |   |   |   |   |   n.TxtDnsQt <= 0.4154: 3 (3.0/1.0)
|   |   |   |   |   |   |   |   |   |   |   |   |   |   |   |   |   |   |   |   n.TxtDnsQt > 0.4154: 0 (24.0)
|   |   |   |   |   |   |   |   |   |   |   |   |   |   |   |   |   |   |   n.AvgWrdLn > 7.5: 3 (6.0)
|   |   |   |   |   |   |   |   |   |   |   |   |   |   |   |   |   |   c.Wrds > 2: 3 (12.0)
|   |   |   |   |   |   |   |   |   |   |   |   |   |   |   |   |   n.CapWrdRtio > 2.25: 3 (19.0)
|   |   |   |   |   |   |   |   |   |   |   |   |   |   |   |   n.RelPos > 0.627778: 0 (42.0/1.0)
|   |   |   |   |   |   |   |   |   |   |   |   |   |   p.CapWrdRtio > 2.5: 3 (17.0/2.0)
|   |   |   |   |   |   |   |   |   |   |   |   |   p.InP = 1: 3 (8.0)
|   |   |   |   |   |   |   |   |   |   |   |   p.InH = 1: 3 (51.0/7.0)
|   |   |   |   |   |   |   |   |   |   |   n.Chars > 17
|   |   |   |   |   |   |   |   |   |   |   |   c.CapStrtWrdRtio <= 0.4138
|   |   |   |   |   |   |   |   |   |   |   |   |   c.Wrds <= 3: 0 (5.0/2.0)
|   |   |   |   |   |   |   |   |   |   |   |   |   c.Wrds > 3: 1 (75.0)
|   |   |   |   |   |   |   |   |   |   |   |   c.CapStrtWrdRtio > 0.4138
|   |   |   |   |   |   |   |   |   |   |   |   |   c.FlstpRtio <= 0.25
|   |   |   |   |   |   |   |   |   |   |   |   |   |   p.WrdsQt <= 0.3659: 3 (27.0/2.0)
|   |   |   |   |   |   |   |   |   |   |   |   |   |   p.WrdsQt > 0.3659
|   |   |   |   |   |   |   |   |   |   |   |   |   |   |   p.InH = 0
|   |   |   |   |   |   |   |   |   |   |   |   |   |   |   |   n.Chars <= 20
|   |   |   |   |   |   |   |   |   |   |   |   |   |   |   |   |   c.AvgWrdLn <= 4.625: 5 (16.0)
|   |   |   |   |   |   |   |   |   |   |   |   |   |   |   |   |   c.AvgWrdLn > 4.625: 0 (11.0/3.0)
|   |   |   |   |   |   |   |   |   |   |   |   |   |   |   |   n.Chars > 20
|   |   |   |   |   |   |   |   |   |   |   |   |   |   |   |   |   n.CapWrdRtio <= 1.8333: 3 (3.0)
|   |   |   |   |   |   |   |   |   |   |   |   |   |   |   |   |   n.CapWrdRtio > 1.8333: 0 (47.0/2.0)
|   |   |   |   |   |   |   |   |   |   |   |   |   |   |   p.InH = 1: 3 (7.0/1.0)
|   |   |   |   |   |   |   |   |   |   |   |   |   c.FlstpRtio > 0.25: 1 (6.0)
|   |   |   |   |   |   |   |   |   |   n.LnkDns > 0.3529
|   |   |   |   |   |   |   |   |   |   |   n.Chars <= 70: 5 (38.0)
|   |   |   |   |   |   |   |   |   |   |   n.Chars > 70: 0 (25.0/7.0)
|   |   |   |   |   |   c.CapWrdRtio > 1.2
|   |   |   |   |   |   |   p.WrdsQt <= 11
|   |   |   |   |   |   |   |   p.InH = 0
|   |   |   |   |   |   |   |   |   n.FlstpRtio <= 0.0667
|   |   |   |   |   |   |   |   |   |   c.CapWrdRtio <= 1.3333
|   |   |   |   |   |   |   |   |   |   |   c.InP = 0
|   |   |   |   |   |   |   |   |   |   |   |   c.AvgWrdLn <= 2.8333: 5 (10.0)
|   |   |   |   |   |   |   |   |   |   |   |   c.AvgWrdLn > 2.8333
|   |   |   |   |   |   |   |   |   |   |   |   |   n.CapWrdRtio <= 1.5
|   |   |   |   |   |   |   |   |   |   |   |   |   |   n.WrdsQt <= 1.1636: 0 (10.0)
|   |   |   |   |   |   |   |   |   |   |   |   |   |   n.WrdsQt > 1.1636
|   |   |   |   |   |   |   |   |   |   |   |   |   |   |   p.RelPos <= 0.535613: 3 (36.0)
|   |   |   |   |   |   |   |   |   |   |   |   |   |   |   p.RelPos > 0.535613
|   |   |   |   |   |   |   |   |   |   |   |   |   |   |   |   p.InP = 0: 0 (11.0)
|   |   |   |   |   |   |   |   |   |   |   |   |   |   |   |   p.InP = 1: 3 (8.0)
|   |   |   |   |   |   |   |   |   |   |   |   |   n.CapWrdRtio > 1.5: 2 (3.0)
|   |   |   |   |   |   |   |   |   |   |   c.InP = 1: 5 (12.0)
|   |   |   |   |   |   |   |   |   |   c.CapWrdRtio > 1.3333
|   |   |   |   |   |   |   |   |   |   |   p.TxtDnsQt <= 3.5833
|   |   |   |   |   |   |   |   |   |   |   |   n.LnkDns <= 0.5833
|   |   |   |   |   |   |   |   |   |   |   |   |   c.LnkDns <= 0.1053
|   |   |   |   |   |   |   |   |   |   |   |   |   |   c.RelPos <= 0.046729: 0 (32.0)
|   |   |   |   |   |   |   |   |   |   |   |   |   |   c.RelPos > 0.046729
|   |   |   |   |   |   |   |   |   |   |   |   |   |   |   p.Wrds <= 3
|   |   |   |   |   |   |   |   |   |   |   |   |   |   |   |   p.CapWrdRtio <= 0.8333
|   |   |   |   |   |   |   |   |   |   |   |   |   |   |   |   |   n.TxtDns <= 6.5
|   |   |   |   |   |   |   |   |   |   |   |   |   |   |   |   |   |   n.LnkDns <= 0.1628
|   |   |   |   |   |   |   |   |   |   |   |   |   |   |   |   |   |   |   n.CapWrdRtio <= 1.6
|   |   |   |   |   |   |   |   |   |   |   |   |   |   |   |   |   |   |   |   c.InP = 0
|   |   |   |   |   |   |   |   |   |   |   |   |   |   |   |   |   |   |   |   |   p.TxtDns <= 10
|   |   |   |   |   |   |   |   |   |   |   |   |   |   |   |   |   |   |   |   |   |   c.RelPos <= 0.461039
|   |   |   |   |   |   |   |   |   |   |   |   |   |   |   |   |   |   |   |   |   |   |   c.AvgWrdLn <= 1.5: 3 (5.0)
|   |   |   |   |   |   |   |   |   |   |   |   |   |   |   |   |   |   |   |   |   |   |   c.AvgWrdLn > 1.5
|   |   |   |   |   |   |   |   |   |   |   |   |   |   |   |   |   |   |   |   |   |   |   |   n.WrdsQt <= 0.3659: 3 (2.0)
|   |   |   |   |   |   |   |   |   |   |   |   |   |   |   |   |   |   |   |   |   |   |   |   n.WrdsQt > 0.3659: 0 (25.0/5.0)
|   |   |   |   |   |   |   |   |   |   |   |   |   |   |   |   |   |   |   |   |   |   c.RelPos > 0.461039: 0 (40.0/2.0)
|   |   |   |   |   |   |   |   |   |   |   |   |   |   |   |   |   |   |   |   |   p.TxtDns > 10: 3 (2.0)
|   |   |   |   |   |   |   |   |   |   |   |   |   |   |   |   |   |   |   |   c.InP = 1: 3 (3.0/1.0)
|   |   |   |   |   |   |   |   |   |   |   |   |   |   |   |   |   |   |   n.CapWrdRtio > 1.6: 0 (3.0/1.0)
|   |   |   |   |   |   |   |   |   |   |   |   |   |   |   |   |   |   n.LnkDns > 0.1628: 0 (9.0/1.0)
|   |   |   |   |   |   |   |   |   |   |   |   |   |   |   |   |   n.TxtDns > 6.5: 3 (42.0/17.0)
|   |   |   |   |   |   |   |   |   |   |   |   |   |   |   |   p.CapWrdRtio > 0.8333
|   |   |   |   |   |   |   |   |   |   |   |   |   |   |   |   |   p.TxtDns <= 12
|   |   |   |   |   |   |   |   |   |   |   |   |   |   |   |   |   |   n.WrdsQt <= 0.4138: 0 (10.0/3.0)
|   |   |   |   |   |   |   |   |   |   |   |   |   |   |   |   |   |   n.WrdsQt > 0.4138
|   |   |   |   |   |   |   |   |   |   |   |   |   |   |   |   |   |   |   c.CapStrtWrdRtio <= 0.4138: 0 (32.0)
|   |   |   |   |   |   |   |   |   |   |   |   |   |   |   |   |   |   |   c.CapStrtWrdRtio > 0.4138
|   |   |   |   |   |   |   |   |   |   |   |   |   |   |   |   |   |   |   |   n.CapStrtWrdRtio <= 0.5833: 2 (5.0)
|   |   |   |   |   |   |   |   |   |   |   |   |   |   |   |   |   |   |   |   n.CapStrtWrdRtio > 0.5833: 0 (30.0/7.0)
|   |   |   |   |   |   |   |   |   |   |   |   |   |   |   |   |   p.TxtDns > 12: 3 (3.0)
|   |   |   |   |   |   |   |   |   |   |   |   |   |   |   p.Wrds > 3
|   |   |   |   |   |   |   |   |   |   |   |   |   |   |   |   c.CapStrtWrdRtio <= 0.125: 0 (16.0/2.0)
|   |   |   |   |   |   |   |   |   |   |   |   |   |   |   |   c.CapStrtWrdRtio > 0.125: 3 (55.0/13.0)
|   |   |   |   |   |   |   |   |   |   |   |   |   c.LnkDns > 0.1053: 0 (21.0)
|   |   |   |   |   |   |   |   |   |   |   |   n.LnkDns > 0.5833: 0 (149.0/9.0)
|   |   |   |   |   |   |   |   |   |   |   p.TxtDnsQt > 3.5833
|   |   |   |   |   |   |   |   |   |   |   |   c.CapWrdRtio <= 1.8333: 2 (8.0/4.0)
|   |   |   |   |   |   |   |   |   |   |   |   c.CapWrdRtio > 1.8333
|   |   |   |   |   |   |   |   |   |   |   |   |   c.CapStrtWrdRtio <= 0.25: 0 (4.0)
|   |   |   |   |   |   |   |   |   |   |   |   |   c.CapStrtWrdRtio > 0.25
|   |   |   |   |   |   |   |   |   |   |   |   |   |   n.CapWrdRtio <= 0.0833: 3 (33.0/4.0)
|   |   |   |   |   |   |   |   |   |   |   |   |   |   n.CapWrdRtio > 0.0833: 0 (2.0)
|   |   |   |   |   |   |   |   |   n.FlstpRtio > 0.0667
|   |   |   |   |   |   |   |   |   |   p.LnkDns <= 0.8333
|   |   |   |   |   |   |   |   |   |   |   c.Wrds <= 2
|   |   |   |   |   |   |   |   |   |   |   |   c.CapWrdRtio <= 1.75: 2 (14.0/2.0)
|   |   |   |   |   |   |   |   |   |   |   |   c.CapWrdRtio > 1.75
|   |   |   |   |   |   |   |   |   |   |   |   |   n.FlstpRtio <= 0.1286: 3 (2.0)
|   |   |   |   |   |   |   |   |   |   |   |   |   n.FlstpRtio > 0.1286: 0 (54.0/2.0)
|   |   |   |   |   |   |   |   |   |   |   c.Wrds > 2: 5 (30.0/12.0)
|   |   |   |   |   |   |   |   |   |   p.LnkDns > 0.8333: 5 (27.0)
|   |   |   |   |   |   |   |   p.InH = 1
|   |   |   |   |   |   |   |   |   p.LnkDns <= 0.6552: 3 (144.0/11.0)
|   |   |   |   |   |   |   |   |   p.LnkDns > 0.6552
|   |   |   |   |   |   |   |   |   |   p.CapWrdRtio <= 0.5: 4 (4.0)
|   |   |   |   |   |   |   |   |   |   p.CapWrdRtio > 0.5: 0 (6.0)
|   |   |   |   |   |   |   p.WrdsQt > 11: 5 (27.0)
|   |   |   |   |   n.InP = 1
|   |   |   |   |   |   n.LnkDns <= 0.087
|   |   |   |   |   |   |   c.Wrds <= 5
|   |   |   |   |   |   |   |   p.InP = 0
|   |   |   |   |   |   |   |   |   n.CapWrdRtio <= 3.5
|   |   |   |   |   |   |   |   |   |   c.CapWrdRtio <= 0.4444
|   |   |   |   |   |   |   |   |   |   |   n.Wrds <= 16
|   |   |   |   |   |   |   |   |   |   |   |   n.CapWrdRtio <= 0.8333
|   |   |   |   |   |   |   |   |   |   |   |   |   p.TxtDns <= 12.5
|   |   |   |   |   |   |   |   |   |   |   |   |   |   p.CapWrdRtio <= 0.5833: 0 (280.0/24.0)
|   |   |   |   |   |   |   |   |   |   |   |   |   |   p.CapWrdRtio > 0.5833
|   |   |   |   |   |   |   |   |   |   |   |   |   |   |   c.CapStrtWrdRtio <= 0.2653: 2 (5.0)
|   |   |   |   |   |   |   |   |   |   |   |   |   |   |   c.CapStrtWrdRtio > 0.2653
|   |   |   |   |   |   |   |   |   |   |   |   |   |   |   |   c.TxtDns <= 8.75
|   |   |   |   |   |   |   |   |   |   |   |   |   |   |   |   |   n.FlstpRtio <= 0.0357: 0 (24.0/1.0)
|   |   |   |   |   |   |   |   |   |   |   |   |   |   |   |   |   n.FlstpRtio > 0.0357: 3 (6.0)
|   |   |   |   |   |   |   |   |   |   |   |   |   |   |   |   c.TxtDns > 8.75: 1 (5.0)
|   |   |   |   |   |   |   |   |   |   |   |   |   p.TxtDns > 12.5
|   |   |   |   |   |   |   |   |   |   |   |   |   |   c.Wrds <= 3: 0 (11.0/4.0)
|   |   |   |   |   |   |   |   |   |   |   |   |   |   c.Wrds > 3: 5 (8.0)
|   |   |   |   |   |   |   |   |   |   |   |   n.CapWrdRtio > 0.8333
|   |   |   |   |   |   |   |   |   |   |   |   |   n.TxtDnsQt <= 1.5833: 3 (59.0/28.0)
|   |   |   |   |   |   |   |   |   |   |   |   |   n.TxtDnsQt > 1.5833
|   |   |   |   |   |   |   |   |   |   |   |   |   |   c.LnkDns <= 0.1
|   |   |   |   |   |   |   |   |   |   |   |   |   |   |   c.InP = 0: 2 (4.0)
|   |   |   |   |   |   |   |   |   |   |   |   |   |   |   c.InP = 1: 1 (10.0)
|   |   |   |   |   |   |   |   |   |   |   |   |   |   c.LnkDns > 0.1: 0 (3.0)
|   |   |   |   |   |   |   |   |   |   |   n.Wrds > 16: 3 (54.0/22.0)
|   |   |   |   |   |   |   |   |   |   c.CapWrdRtio > 0.4444
|   |   |   |   |   |   |   |   |   |   |   n.RelPos <= 0.904192
|   |   |   |   |   |   |   |   |   |   |   |   c.TxtDns <= 1.5: 2 (5.0/2.0)
|   |   |   |   |   |   |   |   |   |   |   |   c.TxtDns > 1.5
|   |   |   |   |   |   |   |   |   |   |   |   |   c.WrdsQt <= 4.75
|   |   |   |   |   |   |   |   |   |   |   |   |   |   c.Chars <= 71: 3 (175.0/40.0)
|   |   |   |   |   |   |   |   |   |   |   |   |   |   c.Chars > 71: 0 (7.0)
|   |   |   |   |   |   |   |   |   |   |   |   |   c.WrdsQt > 4.75
|   |   |   |   |   |   |   |   |   |   |   |   |   |   p.CapWrdRtio <= 0.375: 3 (5.0/2.0)
|   |   |   |   |   |   |   |   |   |   |   |   |   |   p.CapWrdRtio > 0.375: 5 (7.0)
|   |   |   |   |   |   |   |   |   |   |   n.RelPos > 0.904192: 0 (14.0)
|   |   |   |   |   |   |   |   |   n.CapWrdRtio > 3.5
|   |   |   |   |   |   |   |   |   |   n.AvgWrdLn <= 5: 1 (31.0/2.0)
|   |   |   |   |   |   |   |   |   |   n.AvgWrdLn > 5: 3 (5.0)
|   |   |   |   |   |   |   |   p.InP = 1
|   |   |   |   |   |   |   |   |   p.Wrds <= 4
|   |   |   |   |   |   |   |   |   |   n.WrdsQt <= 0.2667
|   |   |   |   |   |   |   |   |   |   |   p.TxtDns <= 5.5
|   |   |   |   |   |   |   |   |   |   |   |   c.CapWrdRtio <= 1.5: 2 (55.0/27.0)
|   |   |   |   |   |   |   |   |   |   |   |   c.CapWrdRtio > 1.5: 3 (7.0/1.0)
|   |   |   |   |   |   |   |   |   |   |   p.TxtDns > 5.5: 5 (10.0)
|   |   |   |   |   |   |   |   |   |   n.WrdsQt > 0.2667
|   |   |   |   |   |   |   |   |   |   |   c.WrdsQt <= 0.225: 0 (30.0/20.0)
|   |   |   |   |   |   |   |   |   |   |   c.WrdsQt > 0.225
|   |   |   |   |   |   |   |   |   |   |   |   n.CapWrdRtio <= 1.125
|   |   |   |   |   |   |   |   |   |   |   |   |   n.WrdsQt <= 2.75
|   |   |   |   |   |   |   |   |   |   |   |   |   |   p.TxtDnsQt <= 8.5
|   |   |   |   |   |   |   |   |   |   |   |   |   |   |   p.CapWrdRtio <= 1.125
|   |   |   |   |   |   |   |   |   |   |   |   |   |   |   |   n.TxtDnsQt <= 2.1579
|   |   |   |   |   |   |   |   |   |   |   |   |   |   |   |   |   c.Chars <= 21
|   |   |   |   |   |   |   |   |   |   |   |   |   |   |   |   |   |   c.FlstpRtio <= 0.5789
|   |   |   |   |   |   |   |   |   |   |   |   |   |   |   |   |   |   |   p.LnkDns <= 0.1818: 0 (779.0/43.0)
|   |   |   |   |   |   |   |   |   |   |   |   |   |   |   |   |   |   |   p.LnkDns > 0.1818
|   |   |   |   |   |   |   |   |   |   |   |   |   |   |   |   |   |   |   |   c.AvgWrdLn <= 5.1651
|   |   |   |   |   |   |   |   |   |   |   |   |   |   |   |   |   |   |   |   |   p.LnkDns <= 0.4: 4 (2.0)
|   |   |   |   |   |   |   |   |   |   |   |   |   |   |   |   |   |   |   |   |   p.LnkDns > 0.4: 0 (10.0/5.0)
|   |   |   |   |   |   |   |   |   |   |   |   |   |   |   |   |   |   |   |   c.AvgWrdLn > 5.1651: 0 (15.0)
|   |   |   |   |   |   |   |   |   |   |   |   |   |   |   |   |   |   c.FlstpRtio > 0.5789
|   |   |   |   |   |   |   |   |   |   |   |   |   |   |   |   |   |   |   c.CapWrdRtio <= 0.5: 0 (8.0/1.0)
|   |   |   |   |   |   |   |   |   |   |   |   |   |   |   |   |   |   |   c.CapWrdRtio > 0.5: 5 (7.0/2.0)
|   |   |   |   |   |   |   |   |   |   |   |   |   |   |   |   |   c.Chars > 21
|   |   |   |   |   |   |   |   |   |   |   |   |   |   |   |   |   |   c.TxtDns <= 5.5
|   |   |   |   |   |   |   |   |   |   |   |   |   |   |   |   |   |   |   p.CapStrtWrdRtio <= 0.375: 5 (4.0)
|   |   |   |   |   |   |   |   |   |   |   |   |   |   |   |   |   |   |   p.CapStrtWrdRtio > 0.375
|   |   |   |   |   |   |   |   |   |   |   |   |   |   |   |   |   |   |   |   c.CapWrdRtio <= 0.25
|   |   |   |   |   |   |   |   |   |   |   |   |   |   |   |   |   |   |   |   |   p.TxtDnsQt <= 0.8333: 0 (16.0)
|   |   |   |   |   |   |   |   |   |   |   |   |   |   |   |   |   |   |   |   |   p.TxtDnsQt > 0.8333
|   |   |   |   |   |   |   |   |   |   |   |   |   |   |   |   |   |   |   |   |   |   p.Wrds <= 1: 0 (12.0)
|   |   |   |   |   |   |   |   |   |   |   |   |   |   |   |   |   |   |   |   |   |   p.Wrds > 1: 2 (48.0)
|   |   |   |   |   |   |   |   |   |   |   |   |   |   |   |   |   |   |   |   c.CapWrdRtio > 0.25: 0 (11.0/4.0)
|   |   |   |   |   |   |   |   |   |   |   |   |   |   |   |   |   |   c.TxtDns > 5.5: 0 (92.0)
|   |   |   |   |   |   |   |   |   |   |   |   |   |   |   |   n.TxtDnsQt > 2.1579: 0 (54.0/16.0)
|   |   |   |   |   |   |   |   |   |   |   |   |   |   |   p.CapWrdRtio > 1.125
|   |   |   |   |   |   |   |   |   |   |   |   |   |   |   |   c.TxtDnsQt <= 1.55: 2 (18.0)
|   |   |   |   |   |   |   |   |   |   |   |   |   |   |   |   c.TxtDnsQt > 1.55
|   |   |   |   |   |   |   |   |   |   |   |   |   |   |   |   |   p.LnkDns <= 0.4333: 0 (11.0)
|   |   |   |   |   |   |   |   |   |   |   |   |   |   |   |   |   p.LnkDns > 0.4333: 5 (3.0)
|   |   |   |   |   |   |   |   |   |   |   |   |   |   p.TxtDnsQt > 8.5: 2 (46.0/20.0)
|   |   |   |   |   |   |   |   |   |   |   |   |   n.WrdsQt > 2.75: 0 (60.0/22.0)
|   |   |   |   |   |   |   |   |   |   |   |   n.CapWrdRtio > 1.125: 0 (45.0/30.0)
|   |   |   |   |   |   |   |   |   p.Wrds > 4
|   |   |   |   |   |   |   |   |   |   p.Chars <= 60
|   |   |   |   |   |   |   |   |   |   |   c.FlstpRtio <= 0.2222
|   |   |   |   |   |   |   |   |   |   |   |   c.TxtDns <= 5.5
|   |   |   |   |   |   |   |   |   |   |   |   |   c.CapWrdRtio <= 0.4118
|   |   |   |   |   |   |   |   |   |   |   |   |   |   c.CapStrtWrdRtio <= 0.2903: 0 (38.0/12.0)
|   |   |   |   |   |   |   |   |   |   |   |   |   |   c.CapStrtWrdRtio > 0.2903
|   |   |   |   |   |   |   |   |   |   |   |   |   |   |   c.Wrds <= 2
|   |   |   |   |   |   |   |   |   |   |   |   |   |   |   |   n.CapWrdRtio <= 1.5
|   |   |   |   |   |   |   |   |   |   |   |   |   |   |   |   |   p.AvgWrdLn <= 3.3793: 4 (2.0)
|   |   |   |   |   |   |   |   |   |   |   |   |   |   |   |   |   p.AvgWrdLn > 3.3793
|   |   |   |   |   |   |   |   |   |   |   |   |   |   |   |   |   |   n.CapStrtWrdRtio <= 0.1
|   |   |   |   |   |   |   |   |   |   |   |   |   |   |   |   |   |   |   c.Wrds <= 1: 0 (2.0/1.0)
|   |   |   |   |   |   |   |   |   |   |   |   |   |   |   |   |   |   |   c.Wrds > 1: 2 (10.0)
|   |   |   |   |   |   |   |   |   |   |   |   |   |   |   |   |   |   n.CapStrtWrdRtio > 0.1
|   |   |   |   |   |   |   |   |   |   |   |   |   |   |   |   |   |   |   p.TxtDns <= 10: 0 (16.0)
|   |   |   |   |   |   |   |   |   |   |   |   |   |   |   |   |   |   |   p.TxtDns > 10: 2 (3.0)
|   |   |   |   |   |   |   |   |   |   |   |   |   |   |   |   n.CapWrdRtio > 1.5: 3 (3.0/1.0)
|   |   |   |   |   |   |   |   |   |   |   |   |   |   |   c.Wrds > 2: 2 (134.0/7.0)
|   |   |   |   |   |   |   |   |   |   |   |   |   c.CapWrdRtio > 0.4118
|   |   |   |   |   |   |   |   |   |   |   |   |   |   c.CapWrdRtio <= 1.5: 0 (14.0/3.0)
|   |   |   |   |   |   |   |   |   |   |   |   |   |   c.CapWrdRtio > 1.5: 3 (5.0/1.0)
|   |   |   |   |   |   |   |   |   |   |   |   c.TxtDns > 5.5
|   |   |   |   |   |   |   |   |   |   |   |   |   p.FlstpRtio <= 0.1724
|   |   |   |   |   |   |   |   |   |   |   |   |   |   p.CapWrdRtio <= 0.475: 3 (17.0)
|   |   |   |   |   |   |   |   |   |   |   |   |   |   p.CapWrdRtio > 0.475: 5 (4.0)
|   |   |   |   |   |   |   |   |   |   |   |   |   p.FlstpRtio > 0.1724: 2 (4.0)
|   |   |   |   |   |   |   |   |   |   |   c.FlstpRtio > 0.2222
|   |   |   |   |   |   |   |   |   |   |   |   c.InP = 0: 0 (5.0)
|   |   |   |   |   |   |   |   |   |   |   |   c.InP = 1
|   |   |   |   |   |   |   |   |   |   |   |   |   c.CapWrdRtio <= 1.125
|   |   |   |   |   |   |   |   |   |   |   |   |   |   n.Chars <= 54: 5 (33.0)
|   |   |   |   |   |   |   |   |   |   |   |   |   |   n.Chars > 54: 2 (8.0)
|   |   |   |   |   |   |   |   |   |   |   |   |   c.CapWrdRtio > 1.125: 3 (4.0)
|   |   |   |   |   |   |   |   |   |   p.Chars > 60: 0 (62.0/9.0)
|   |   |   |   |   |   |   c.Wrds > 5
|   |   |   |   |   |   |   |   p.WrdsQt <= 0.0411: 0 (168.0/8.0)
|   |   |   |   |   |   |   |   p.WrdsQt > 0.0411
|   |   |   |   |   |   |   |   |   n.RelPos <= 0.830065
|   |   |   |   |   |   |   |   |   |   c.CapWrdRtio <= 0.2571
|   |   |   |   |   |   |   |   |   |   |   c.InP = 0: 1 (171.0/75.0)
|   |   |   |   |   |   |   |   |   |   |   c.InP = 1
|   |   |   |   |   |   |   |   |   |   |   |   p.LnkDns <= 0.5385
|   |   |   |   |   |   |   |   |   |   |   |   |   p.InH = 0
|   |   |   |   |   |   |   |   |   |   |   |   |   |   p.TxtDnsQt <= 8.5
|   |   |   |   |   |   |   |   |   |   |   |   |   |   |   c.AvgWrdLn <= 4.7812
|   |   |   |   |   |   |   |   |   |   |   |   |   |   |   |   p.LnkDns <= 0.32
|   |   |   |   |   |   |   |   |   |   |   |   |   |   |   |   |   p.CapWrdRtio <= 0.2105
|   |   |   |   |   |   |   |   |   |   |   |   |   |   |   |   |   |   n.CapWrdRtio <= 0.4444
|   |   |   |   |   |   |   |   |   |   |   |   |   |   |   |   |   |   |   p.RelPos <= 0.698413
|   |   |   |   |   |   |   |   |   |   |   |   |   |   |   |   |   |   |   |   c.FlstpRtio <= 0.2778
|   |   |   |   |   |   |   |   |   |   |   |   |   |   |   |   |   |   |   |   |   n.CapStrtWrdRtio <= 0.0667: 5 (15.0)
|   |   |   |   |   |   |   |   |   |   |   |   |   |   |   |   |   |   |   |   |   n.CapStrtWrdRtio > 0.0667
|   |   |   |   |   |   |   |   |   |   |   |   |   |   |   |   |   |   |   |   |   |   p.AvgWrdLn <= 4.4545
|   |   |   |   |   |   |   |   |   |   |   |   |   |   |   |   |   |   |   |   |   |   |   p.AvgWrdLn <= 4.303
|   |   |   |   |   |   |   |   |   |   |   |   |   |   |   |   |   |   |   |   |   |   |   |   c.CapStrtWrdRtio <= 0.129: 5 (35.0/14.0)
|   |   |   |   |   |   |   |   |   |   |   |   |   |   |   |   |   |   |   |   |   |   |   |   c.CapStrtWrdRtio > 0.129: 2 (85.0)
|   |   |   |   |   |   |   |   |   |   |   |   |   |   |   |   |   |   |   |   |   |   |   p.AvgWrdLn > 4.303: 5 (20.0)
|   |   |   |   |   |   |   |   |   |   |   |   |   |   |   |   |   |   |   |   |   |   p.AvgWrdLn > 4.4545: 2 (180.0/15.0)
|   |   |   |   |   |   |   |   |   |   |   |   |   |   |   |   |   |   |   |   c.FlstpRtio > 0.2778: 5 (15.0)
|   |   |   |   |   |   |   |   |   |   |   |   |   |   |   |   |   |   |   p.RelPos > 0.698413: 5 (35.0)
|   |   |   |   |   |   |   |   |   |   |   |   |   |   |   |   |   |   n.CapWrdRtio > 0.4444: 5 (42.0)
|   |   |   |   |   |   |   |   |   |   |   |   |   |   |   |   |   p.CapWrdRtio > 0.2105: 5 (239.0/15.0)
|   |   |   |   |   |   |   |   |   |   |   |   |   |   |   |   p.LnkDns > 0.32: 1 (36.0/19.0)
|   |   |   |   |   |   |   |   |   |   |   |   |   |   |   c.AvgWrdLn > 4.7812
|   |   |   |   |   |   |   |   |   |   |   |   |   |   |   |   n.CapWrdRtio <= 1.125
|   |   |   |   |   |   |   |   |   |   |   |   |   |   |   |   |   n.WrdsQt <= 5.75
|   |   |   |   |   |   |   |   |   |   |   |   |   |   |   |   |   |   c.CapStrtWrdRtio <= 0.0333: 5 (26.0/18.0)
|   |   |   |   |   |   |   |   |   |   |   |   |   |   |   |   |   |   c.CapStrtWrdRtio > 0.0333
|   |   |   |   |   |   |   |   |   |   |   |   |   |   |   |   |   |   |   p.TxtDnsQt <= 0.303: 0 (23.0/8.0)
|   |   |   |   |   |   |   |   |   |   |   |   |   |   |   |   |   |   |   p.TxtDnsQt > 0.303: 2 (569.0/81.0)
|   |   |   |   |   |   |   |   |   |   |   |   |   |   |   |   |   n.WrdsQt > 5.75: 0 (108.0/33.0)
|   |   |   |   |   |   |   |   |   |   |   |   |   |   |   |   n.CapWrdRtio > 1.125: 1 (43.0/14.0)
|   |   |   |   |   |   |   |   |   |   |   |   |   |   p.TxtDnsQt > 8.5: 2 (85.0/24.0)
|   |   |   |   |   |   |   |   |   |   |   |   |   p.InH = 1
|   |   |   |   |   |   |   |   |   |   |   |   |   |   p.CapStrtWrdRtio <= 0.6111: 3 (26.0)
|   |   |   |   |   |   |   |   |   |   |   |   |   |   p.CapStrtWrdRtio > 0.6111: 0 (21.0)
|   |   |   |   |   |   |   |   |   |   |   |   p.LnkDns > 0.5385: 5 (173.0/38.0)
|   |   |   |   |   |   |   |   |   |   c.CapWrdRtio > 0.2571: 5 (358.0/113.0)
|   |   |   |   |   |   |   |   |   n.RelPos > 0.830065
|   |   |   |   |   |   |   |   |   |   c.InP = 0: 5 (46.0/18.0)
|   |   |   |   |   |   |   |   |   |   c.InP = 1
|   |   |   |   |   |   |   |   |   |   |   c.Chars <= 39
|   |   |   |   |   |   |   |   |   |   |   |   c.RelPos <= 0.864706: 5 (38.0/12.0)
|   |   |   |   |   |   |   |   |   |   |   |   c.RelPos > 0.864706: 0 (93.0/56.0)
|   |   |   |   |   |   |   |   |   |   |   c.Chars > 39
|   |   |   |   |   |   |   |   |   |   |   |   p.Chars <= 8: 2 (22.0)
|   |   |   |   |   |   |   |   |   |   |   |   p.Chars > 8: 0 (210.0/21.0)
|   |   |   |   |   |   n.LnkDns > 0.087
|   |   |   |   |   |   |   n.CapWrdRtio <= 1.25
|   |   |   |   |   |   |   |   p.TxtDnsQt <= 3.1111
|   |   |   |   |   |   |   |   |   p.TxtDns <= 9.5
|   |   |   |   |   |   |   |   |   |   p.AvgWrdLn <= 10.6667
|   |   |   |   |   |   |   |   |   |   |   p.FlstpRtio <= 0.1538
|   |   |   |   |   |   |   |   |   |   |   |   p.LnkDns <= 0.0449
|   |   |   |   |   |   |   |   |   |   |   |   |   c.CapWrdRtio <= 1.4
|   |   |   |   |   |   |   |   |   |   |   |   |   |   n.CapWrdRtio <= 0.5833: 0 (584.0/52.0)
|   |   |   |   |   |   |   |   |   |   |   |   |   |   n.CapWrdRtio > 0.5833: 5 (15.0/3.0)
|   |   |   |   |   |   |   |   |   |   |   |   |   c.CapWrdRtio > 1.4: 3 (13.0)
|   |   |   |   |   |   |   |   |   |   |   |   p.LnkDns > 0.0449: 0 (808.0/6.0)
|   |   |   |   |   |   |   |   |   |   |   p.FlstpRtio > 0.1538: 0 (147.0/31.0)
|   |   |   |   |   |   |   |   |   |   p.AvgWrdLn > 10.6667: 0 (46.0/14.0)
|   |   |   |   |   |   |   |   |   p.TxtDns > 9.5
|   |   |   |   |   |   |   |   |   |   n.Wrds <= 3
|   |   |   |   |   |   |   |   |   |   |   p.CapStrtWrdRtio <= 0.16
|   |   |   |   |   |   |   |   |   |   |   |   c.Wrds <= 4: 0 (7.0)
|   |   |   |   |   |   |   |   |   |   |   |   c.Wrds > 4: 5 (26.0)
|   |   |   |   |   |   |   |   |   |   |   p.CapStrtWrdRtio > 0.16
|   |   |   |   |   |   |   |   |   |   |   |   p.LnkDns <= 0.3333
|   |   |   |   |   |   |   |   |   |   |   |   |   p.TxtDnsQt <= 0.0377: 0 (6.0)
|   |   |   |   |   |   |   |   |   |   |   |   |   p.TxtDnsQt > 0.0377: 3 (43.0)
|   |   |   |   |   |   |   |   |   |   |   |   p.LnkDns > 0.3333: 0 (27.0)
|   |   |   |   |   |   |   |   |   |   n.Wrds > 3: 0 (212.0/43.0)
|   |   |   |   |   |   |   |   p.TxtDnsQt > 3.1111: 0 (238.0/88.0)
|   |   |   |   |   |   |   n.CapWrdRtio > 1.25: 5 (197.0/27.0)
|   |   |   |   c.LnkDns > 0.2069
|   |   |   |   |   c.CapWrdRtio <= 1.087
|   |   |   |   |   |   p.CapWrdRtio <= 1.2
|   |   |   |   |   |   |   c.TxtDnsQt <= 1.7407
|   |   |   |   |   |   |   |   n.InP = 0
|   |   |   |   |   |   |   |   |   p.InP = 0
|   |   |   |   |   |   |   |   |   |   n.WrdsQt <= 9.7143
|   |   |   |   |   |   |   |   |   |   |   c.TxtDns <= 7.8571
|   |   |   |   |   |   |   |   |   |   |   |   p.FlstpRtio <= 0.1538
|   |   |   |   |   |   |   |   |   |   |   |   |   c.Chars <= 25: 0 (488.0/27.0)
|   |   |   |   |   |   |   |   |   |   |   |   |   c.Chars > 25
|   |   |   |   |   |   |   |   |   |   |   |   |   |   p.InH = 0
|   |   |   |   |   |   |   |   |   |   |   |   |   |   |   p.TxtDnsQt <= 3.2857
|   |   |   |   |   |   |   |   |   |   |   |   |   |   |   |   p.Chars <= 8: 0 (567.0/14.0)
|   |   |   |   |   |   |   |   |   |   |   |   |   |   |   |   p.Chars > 8
|   |   |   |   |   |   |   |   |   |   |   |   |   |   |   |   |   n.WrdsQt <= 4.75
|   |   |   |   |   |   |   |   |   |   |   |   |   |   |   |   |   |   n.WrdsQt <= 0.1846: 0 (336.0/8.0)
|   |   |   |   |   |   |   |   |   |   |   |   |   |   |   |   |   |   n.WrdsQt > 0.1846
|   |   |   |   |   |   |   |   |   |   |   |   |   |   |   |   |   |   |   p.LnkDns <= 0.5882
|   |   |   |   |   |   |   |   |   |   |   |   |   |   |   |   |   |   |   |   p.Wrds <= 3
|   |   |   |   |   |   |   |   |   |   |   |   |   |   |   |   |   |   |   |   |   c.Chars <= 95: 0 (22468.0/14.0)
|   |   |   |   |   |   |   |   |   |   |   |   |   |   |   |   |   |   |   |   |   c.Chars > 95
|   |   |   |   |   |   |   |   |   |   |   |   |   |   |   |   |   |   |   |   |   |   c.CapStrtWrdRtio <= 0.55
|   |   |   |   |   |   |   |   |   |   |   |   |   |   |   |   |   |   |   |   |   |   |   c.LnkDns <= 0.3636
|   |   |   |   |   |   |   |   |   |   |   |   |   |   |   |   |   |   |   |   |   |   |   |   c.TxtDns <= 6.5: 0 (65.0/4.0)
|   |   |   |   |   |   |   |   |   |   |   |   |   |   |   |   |   |   |   |   |   |   |   |   c.TxtDns > 6.5: 3 (5.0/2.0)
|   |   |   |   |   |   |   |   |   |   |   |   |   |   |   |   |   |   |   |   |   |   |   c.LnkDns > 0.3636: 0 (233.0/6.0)
|   |   |   |   |   |   |   |   |   |   |   |   |   |   |   |   |   |   |   |   |   |   c.CapStrtWrdRtio > 0.55: 0 (989.0)
|   |   |   |   |   |   |   |   |   |   |   |   |   |   |   |   |   |   |   |   p.Wrds > 3
|   |   |   |   |   |   |   |   |   |   |   |   |   |   |   |   |   |   |   |   |   c.LnkDns <= 0.4
|   |   |   |   |   |   |   |   |   |   |   |   |   |   |   |   |   |   |   |   |   |   c.LnkDns <= 0.3818: 0 (95.0)
|   |   |   |   |   |   |   |   |   |   |   |   |   |   |   |   |   |   |   |   |   |   c.LnkDns > 0.3818
|   |   |   |   |   |   |   |   |   |   |   |   |   |   |   |   |   |   |   |   |   |   |   n.LnkDns <= 0.2222: 3 (8.0/2.0)
|   |   |   |   |   |   |   |   |   |   |   |   |   |   |   |   |   |   |   |   |   |   |   n.LnkDns > 0.2222: 0 (34.0)
|   |   |   |   |   |   |   |   |   |   |   |   |   |   |   |   |   |   |   |   |   c.LnkDns > 0.4: 0 (638.0/1.0)
|   |   |   |   |   |   |   |   |   |   |   |   |   |   |   |   |   |   |   p.LnkDns > 0.5882: 0 (9034.0/88.0)
|   |   |   |   |   |   |   |   |   |   |   |   |   |   |   |   |   n.WrdsQt > 4.75: 0 (681.0/5.0)
|   |   |   |   |   |   |   |   |   |   |   |   |   |   |   p.TxtDnsQt > 3.2857: 0 (1468.0/50.0)
|   |   |   |   |   |   |   |   |   |   |   |   |   |   p.InH = 1
|   |   |   |   |   |   |   |   |   |   |   |   |   |   |   p.LnkDns <= 0.68
|   |   |   |   |   |   |   |   |   |   |   |   |   |   |   |   n.WrdsQt <= 3.5
|   |   |   |   |   |   |   |   |   |   |   |   |   |   |   |   |   p.Wrds <= 3: 0 (741.0/8.0)
|   |   |   |   |   |   |   |   |   |   |   |   |   |   |   |   |   p.Wrds > 3
|   |   |   |   |   |   |   |   |   |   |   |   |   |   |   |   |   |   c.LnkDns <= 0.4138: 3 (5.0/2.0)
|   |   |   |   |   |   |   |   |   |   |   |   |   |   |   |   |   |   c.LnkDns > 0.4138: 0 (53.0/5.0)
|   |   |   |   |   |   |   |   |   |   |   |   |   |   |   |   n.WrdsQt > 3.5: 0 (36.0/9.0)
|   |   |   |   |   |   |   |   |   |   |   |   |   |   |   p.LnkDns > 0.68: 0 (17.0/8.0)
|   |   |   |   |   |   |   |   |   |   |   |   p.FlstpRtio > 0.1538
|   |   |   |   |   |   |   |   |   |   |   |   |   p.TxtDnsQt <= 2.1: 0 (1374.0/6.0)
|   |   |   |   |   |   |   |   |   |   |   |   |   p.TxtDnsQt > 2.1
|   |   |   |   |   |   |   |   |   |   |   |   |   |   n.LnkDns <= 0.2812
|   |   |   |   |   |   |   |   |   |   |   |   |   |   |   p.TxtDns <= 4: 0 (9.0)
|   |   |   |   |   |   |   |   |   |   |   |   |   |   |   p.TxtDns > 4: 5 (33.0)
|   |   |   |   |   |   |   |   |   |   |   |   |   |   n.LnkDns > 0.2812: 0 (67.0/4.0)
|   |   |   |   |   |   |   |   |   |   |   c.TxtDns > 7.8571
|   |   |   |   |   |   |   |   |   |   |   |   c.InP = 0
|   |   |   |   |   |   |   |   |   |   |   |   |   p.TxtDnsQt <= 4.3077
|   |   |   |   |   |   |   |   |   |   |   |   |   |   p.RelPos <= 0.676329
|   |   |   |   |   |   |   |   |   |   |   |   |   |   |   c.TxtDnsQt <= 0.16: 0 (250.0/15.0)
|   |   |   |   |   |   |   |   |   |   |   |   |   |   |   c.TxtDnsQt > 0.16
|   |   |   |   |   |   |   |   |   |   |   |   |   |   |   |   c.FlstpRtio <= 0.6667
|   |   |   |   |   |   |   |   |   |   |   |   |   |   |   |   |   c.Wrds <= 4: 0 (472.0/11.0)
|   |   |   |   |   |   |   |   |   |   |   |   |   |   |   |   |   c.Wrds > 4
|   |   |   |   |   |   |   |   |   |   |   |   |   |   |   |   |   |   c.LnkDns <= 0.8667
|   |   |   |   |   |   |   |   |   |   |   |   |   |   |   |   |   |   |   n.InH = 0
|   |   |   |   |   |   |   |   |   |   |   |   |   |   |   |   |   |   |   |   p.CapWrdRtio <= 0.7273
|   |   |   |   |   |   |   |   |   |   |   |   |   |   |   |   |   |   |   |   |   n.WrdsQt <= 0.5854: 0 (233.0/34.0)
|   |   |   |   |   |   |   |   |   |   |   |   |   |   |   |   |   |   |   |   |   n.WrdsQt > 0.5854
|   |   |   |   |   |   |   |   |   |   |   |   |   |   |   |   |   |   |   |   |   |   c.RelPos <= 0.685714
|   |   |   |   |   |   |   |   |   |   |   |   |   |   |   |   |   |   |   |   |   |   |   c.Chars <= 143
|   |   |   |   |   |   |   |   |   |   |   |   |   |   |   |   |   |   |   |   |   |   |   |   c.Chars <= 121: 0 (7417.0/248.0)
|   |   |   |   |   |   |   |   |   |   |   |   |   |   |   |   |   |   |   |   |   |   |   |   c.Chars > 121
|   |   |   |   |   |   |   |   |   |   |   |   |   |   |   |   |   |   |   |   |   |   |   |   |   c.CapWrdRtio <= 0.0452: 0 (210.0)
|   |   |   |   |   |   |   |   |   |   |   |   |   |   |   |   |   |   |   |   |   |   |   |   |   c.CapWrdRtio > 0.0452
|   |   |   |   |   |   |   |   |   |   |   |   |   |   |   |   |   |   |   |   |   |   |   |   |   |   p.RelPos <= 0.365385
|   |   |   |   |   |   |   |   |   |   |   |   |   |   |   |   |   |   |   |   |   |   |   |   |   |   |   c.Wrds <= 7: 0 (23.0)
|   |   |   |   |   |   |   |   |   |   |   |   |   |   |   |   |   |   |   |   |   |   |   |   |   |   |   c.Wrds > 7: 4 (60.0)
|   |   |   |   |   |   |   |   |   |   |   |   |   |   |   |   |   |   |   |   |   |   |   |   |   |   p.RelPos > 0.365385: 0 (49.0)
|   |   |   |   |   |   |   |   |   |   |   |   |   |   |   |   |   |   |   |   |   |   |   c.Chars > 143: 0 (1048.0)
|   |   |   |   |   |   |   |   |   |   |   |   |   |   |   |   |   |   |   |   |   |   c.RelPos > 0.685714: 0 (53.0/15.0)
|   |   |   |   |   |   |   |   |   |   |   |   |   |   |   |   |   |   |   |   p.CapWrdRtio > 0.7273: 0 (413.0/7.0)
|   |   |   |   |   |   |   |   |   |   |   |   |   |   |   |   |   |   |   n.InH = 1: 0 (590.0/7.0)
|   |   |   |   |   |   |   |   |   |   |   |   |   |   |   |   |   |   c.LnkDns > 0.8667: 0 (285.0/14.0)
|   |   |   |   |   |   |   |   |   |   |   |   |   |   |   |   c.FlstpRtio > 0.6667: 0 (29.0/8.0)
|   |   |   |   |   |   |   |   |   |   |   |   |   |   p.RelPos > 0.676329: 0 (10715.0/59.0)
|   |   |   |   |   |   |   |   |   |   |   |   |   p.TxtDnsQt > 4.3077: 0 (1338.0/101.0)
|   |   |   |   |   |   |   |   |   |   |   |   c.InP = 1
|   |   |   |   |   |   |   |   |   |   |   |   |   n.FlstpRtio <= 0.0833: 0 (410.0/6.0)
|   |   |   |   |   |   |   |   |   |   |   |   |   n.FlstpRtio > 0.0833: 5 (17.0/6.0)
|   |   |   |   |   |   |   |   |   |   n.WrdsQt > 9.7143: 0 (1993.0/36.0)
|   |   |   |   |   |   |   |   |   p.InP = 1: 0 (1518.0/91.0)
|   |   |   |   |   |   |   |   n.InP = 1
|   |   |   |   |   |   |   |   |   n.RelPos <= 0.112195
|   |   |   |   |   |   |   |   |   |   c.LnkDns <= 0.68: 0 (359.0/19.0)
|   |   |   |   |   |   |   |   |   |   c.LnkDns > 0.68
|   |   |   |   |   |   |   |   |   |   |   n.CapWrdRtio <= 0.1
|   |   |   |   |   |   |   |   |   |   |   |   p.InP = 0: 0 (8.0)
|   |   |   |   |   |   |   |   |   |   |   |   p.InP = 1: 5 (37.0)
|   |   |   |   |   |   |   |   |   |   |   n.CapWrdRtio > 0.1: 3 (46.0)
|   |   |   |   |   |   |   |   |   n.RelPos > 0.112195
|   |   |   |   |   |   |   |   |   |   c.CapStrtWrdRtio <= 0.2759
|   |   |   |   |   |   |   |   |   |   |   c.Chars <= 31: 0 (26.0/12.0)
|   |   |   |   |   |   |   |   |   |   |   c.Chars > 31
|   |   |   |   |   |   |   |   |   |   |   |   c.LnkDns <= 0.2581: 0 (28.0/16.0)
|   |   |   |   |   |   |   |   |   |   |   |   c.LnkDns > 0.2581
|   |   |   |   |   |   |   |   |   |   |   |   |   c.CapWrdRtio <= 0.7778
|   |   |   |   |   |   |   |   |   |   |   |   |   |   p.TxtDnsQt <= 8.625
|   |   |   |   |   |   |   |   |   |   |   |   |   |   |   n.Chars <= 8: 0 (76.0/21.0)
|   |   |   |   |   |   |   |   |   |   |   |   |   |   |   n.Chars > 8
|   |   |   |   |   |   |   |   |   |   |   |   |   |   |   |   p.WrdsQt <= 0.2105
|   |   |   |   |   |   |   |   |   |   |   |   |   |   |   |   |   c.InP = 0: 5 (10.0)
|   |   |   |   |   |   |   |   |   |   |   |   |   |   |   |   |   c.InP = 1: 0 (17.0)
|   |   |   |   |   |   |   |   |   |   |   |   |   |   |   |   p.WrdsQt > 0.2105: 0 (1097.0/26.0)
|   |   |   |   |   |   |   |   |   |   |   |   |   |   p.TxtDnsQt > 8.625: 0 (29.0/12.0)
|   |   |   |   |   |   |   |   |   |   |   |   |   c.CapWrdRtio > 0.7778
|   |   |   |   |   |   |   |   |   |   |   |   |   |   n.LnkDns <= 0.6875: 0 (83.0/5.0)
|   |   |   |   |   |   |   |   |   |   |   |   |   |   n.LnkDns > 0.6875: 4 (23.0)
|   |   |   |   |   |   |   |   |   |   c.CapStrtWrdRtio > 0.2759
|   |   |   |   |   |   |   |   |   |   |   n.FlstpRtio <= 0.875
|   |   |   |   |   |   |   |   |   |   |   |   p.InH = 0
|   |   |   |   |   |   |   |   |   |   |   |   |   n.WrdsQt <= 0.2105: 0 (79.0/10.0)
|   |   |   |   |   |   |   |   |   |   |   |   |   n.WrdsQt > 0.2105
|   |   |   |   |   |   |   |   |   |   |   |   |   |   p.LnkDns <= 0.7059: 0 (5220.0/55.0)
|   |   |   |   |   |   |   |   |   |   |   |   |   |   p.LnkDns > 0.7059
|   |   |   |   |   |   |   |   |   |   |   |   |   |   |   n.Chars <= 62
|   |   |   |   |   |   |   |   |   |   |   |   |   |   |   |   p.WrdsQt <= 2.506
|   |   |   |   |   |   |   |   |   |   |   |   |   |   |   |   |   n.AvgWrdLn <= 2.75: 4 (9.0)
|   |   |   |   |   |   |   |   |   |   |   |   |   |   |   |   |   n.AvgWrdLn > 2.75
|   |   |   |   |   |   |   |   |   |   |   |   |   |   |   |   |   |   n.Chars <= 58: 0 (283.0/7.0)
|   |   |   |   |   |   |   |   |   |   |   |   |   |   |   |   |   |   n.Chars > 58
|   |   |   |   |   |   |   |   |   |   |   |   |   |   |   |   |   |   |   c.CapStrtWrdRtio <= 0.55
|   |   |   |   |   |   |   |   |   |   |   |   |   |   |   |   |   |   |   |   p.Chars <= 57: 0 (6.0)
|   |   |   |   |   |   |   |   |   |   |   |   |   |   |   |   |   |   |   |   p.Chars > 57: 4 (21.0)
|   |   |   |   |   |   |   |   |   |   |   |   |   |   |   |   |   |   |   c.CapStrtWrdRtio > 0.55: 0 (30.0)
|   |   |   |   |   |   |   |   |   |   |   |   |   |   |   |   p.WrdsQt > 2.506: 4 (14.0/3.0)
|   |   |   |   |   |   |   |   |   |   |   |   |   |   |   n.Chars > 62: 0 (466.0)
|   |   |   |   |   |   |   |   |   |   |   |   p.InH = 1: 0 (311.0/31.0)
|   |   |   |   |   |   |   |   |   |   |   n.FlstpRtio > 0.875: 0 (27.0/15.0)
|   |   |   |   |   |   |   c.TxtDnsQt > 1.7407
|   |   |   |   |   |   |   |   n.CapWrdRtio <= 1.2
|   |   |   |   |   |   |   |   |   n.WrdsQt <= 4.5
|   |   |   |   |   |   |   |   |   |   p.CapWrdRtio <= 0.7
|   |   |   |   |   |   |   |   |   |   |   c.LnkDns <= 0.8214
|   |   |   |   |   |   |   |   |   |   |   |   p.LnkDns <= 0.0161
|   |   |   |   |   |   |   |   |   |   |   |   |   c.FlstpRtio <= 0.1639: 0 (595.0/49.0)
|   |   |   |   |   |   |   |   |   |   |   |   |   c.FlstpRtio > 0.1639
|   |   |   |   |   |   |   |   |   |   |   |   |   |   c.LnkDns <= 0.4138: 5 (9.0)
|   |   |   |   |   |   |   |   |   |   |   |   |   |   c.LnkDns > 0.4138: 0 (15.0)
|   |   |   |   |   |   |   |   |   |   |   |   p.LnkDns > 0.0161: 0 (1997.0/16.0)
|   |   |   |   |   |   |   |   |   |   |   c.LnkDns > 0.8214: 0 (127.0/24.0)
|   |   |   |   |   |   |   |   |   |   p.CapWrdRtio > 0.7
|   |   |   |   |   |   |   |   |   |   |   p.Wrds <= 5: 0 (129.0)
|   |   |   |   |   |   |   |   |   |   |   p.Wrds > 5
|   |   |   |   |   |   |   |   |   |   |   |   n.InP = 0
|   |   |   |   |   |   |   |   |   |   |   |   |   p.CapStrtWrdRtio <= 0.5833: 0 (16.0)
|   |   |   |   |   |   |   |   |   |   |   |   |   p.CapStrtWrdRtio > 0.5833: 3 (2.0)
|   |   |   |   |   |   |   |   |   |   |   |   n.InP = 1
|   |   |   |   |   |   |   |   |   |   |   |   |   c.LnkDns <= 0.55: 0 (4.0)
|   |   |   |   |   |   |   |   |   |   |   |   |   c.LnkDns > 0.55: 5 (39.0)
|   |   |   |   |   |   |   |   |   n.WrdsQt > 4.5: 0 (69.0/25.0)
|   |   |   |   |   |   |   |   n.CapWrdRtio > 1.2: 0 (54.0/21.0)
|   |   |   |   |   |   p.CapWrdRtio > 1.2
|   |   |   |   |   |   |   c.LnkDns <= 0.8889
|   |   |   |   |   |   |   |   c.FlstpRtio <= 0.1538: 0 (1671.0/115.0)
|   |   |   |   |   |   |   |   c.FlstpRtio > 0.1538
|   |   |   |   |   |   |   |   |   p.TxtDns <= 8.6: 0 (100.0/3.0)
|   |   |   |   |   |   |   |   |   p.TxtDns > 8.6
|   |   |   |   |   |   |   |   |   |   n.FlstpRtio <= 0.2: 5 (21.0)
|   |   |   |   |   |   |   |   |   |   n.FlstpRtio > 0.2: 0 (12.0)
|   |   |   |   |   |   |   c.LnkDns > 0.8889
|   |   |   |   |   |   |   |   p.LnkDns <= 0.3: 5 (92.0/9.0)
|   |   |   |   |   |   |   |   p.LnkDns > 0.3: 4 (19.0)
|   |   |   |   |   c.CapWrdRtio > 1.087
|   |   |   |   |   |   n.LnkDns <= 0.1765
|   |   |   |   |   |   |   n.CapStrtWrdRtio <= 0.619
|   |   |   |   |   |   |   |   c.FlstpRtio <= 0.2533: 5 (150.0/9.0)
|   |   |   |   |   |   |   |   c.FlstpRtio > 0.2533: 0 (8.0)
|   |   |   |   |   |   |   n.CapStrtWrdRtio > 0.619: 0 (21.0/1.0)
|   |   |   |   |   |   n.LnkDns > 0.1765: 0 (185.0/7.0)
|   |   |   c.InH = 1
|   |   |   |   c.Wrds <= 4
|   |   |   |   |   c.Wrds <= 3
|   |   |   |   |   |   n.TxtDns <= 17.5
|   |   |   |   |   |   |   c.CapWrdRtio <= 0.5833
|   |   |   |   |   |   |   |   c.FlstpRtio <= 0.8
|   |   |   |   |   |   |   |   |   n.FlstpRtio <= 0.2667
|   |   |   |   |   |   |   |   |   |   p.TxtDnsQt <= 0.24: 0 (76.0/15.0)
|   |   |   |   |   |   |   |   |   |   p.TxtDnsQt > 0.24
|   |   |   |   |   |   |   |   |   |   |   n.LnkDns <= 0.3529
|   |   |   |   |   |   |   |   |   |   |   |   n.Chars <= 156
|   |   |   |   |   |   |   |   |   |   |   |   |   n.Wrds <= 2: 0 (650.0/14.0)
|   |   |   |   |   |   |   |   |   |   |   |   |   n.Wrds > 2
|   |   |   |   |   |   |   |   |   |   |   |   |   |   n.CapWrdRtio <= 0.5455: 0 (361.0/16.0)
|   |   |   |   |   |   |   |   |   |   |   |   |   |   n.CapWrdRtio > 0.5455
|   |   |   |   |   |   |   |   |   |   |   |   |   |   |   p.InH = 0: 0 (16.0/5.0)
|   |   |   |   |   |   |   |   |   |   |   |   |   |   |   p.InH = 1: 3 (2.0)
|   |   |   |   |   |   |   |   |   |   |   |   n.Chars > 156
|   |   |   |   |   |   |   |   |   |   |   |   |   p.InH = 0: 0 (15.0/3.0)
|   |   |   |   |   |   |   |   |   |   |   |   |   p.InH = 1: 3 (3.0)
|   |   |   |   |   |   |   |   |   |   |   n.LnkDns > 0.3529: 0 (803.0/14.0)
|   |   |   |   |   |   |   |   |   n.FlstpRtio > 0.2667: 0 (74.0/8.0)
|   |   |   |   |   |   |   |   c.FlstpRtio > 0.8: 0 (29.0/6.0)
|   |   |   |   |   |   |   c.CapWrdRtio > 0.5833
|   |   |   |   |   |   |   |   c.CapWrdRtio <= 0.8333
|   |   |   |   |   |   |   |   |   p.InH = 0: 0 (3.0)
|   |   |   |   |   |   |   |   |   p.InH = 1: 3 (9.0)
|   |   |   |   |   |   |   |   c.CapWrdRtio > 0.8333
|   |   |   |   |   |   |   |   |   c.CapWrdRtio <= 1.3333: 0 (174.0/3.0)
|   |   |   |   |   |   |   |   |   c.CapWrdRtio > 1.3333
|   |   |   |   |   |   |   |   |   |   p.RelPos <= 0.419437: 3 (6.0)
|   |   |   |   |   |   |   |   |   |   p.RelPos > 0.419437: 0 (9.0/1.0)
|   |   |   |   |   |   n.TxtDns > 17.5: 0 (29.0/12.0)
|   |   |   |   |   c.Wrds > 3
|   |   |   |   |   |   n.Chars <= 36
|   |   |   |   |   |   |   c.AvgWrdLn <= 4.875: 0 (76.0/20.0)
|   |   |   |   |   |   |   c.AvgWrdLn > 4.875
|   |   |   |   |   |   |   |   c.LnkDns <= 0.2
|   |   |   |   |   |   |   |   |   c.TxtDnsQt <= 0.4375: 0 (4.0)
|   |   |   |   |   |   |   |   |   c.TxtDnsQt > 0.4375: 1 (68.0/4.0)
|   |   |   |   |   |   |   |   c.LnkDns > 0.2: 0 (12.0)
|   |   |   |   |   |   n.Chars > 36: 0 (360.0/56.0)
|   |   |   |   c.Wrds > 4
|   |   |   |   |   c.LnkDns <= 0.1818
|   |   |   |   |   |   c.RelPos <= 0.017316: 0 (56.0)
|   |   |   |   |   |   c.RelPos > 0.017316
|   |   |   |   |   |   |   c.RelPos <= 0.885714
|   |   |   |   |   |   |   |   n.LnkDns <= 0.4242
|   |   |   |   |   |   |   |   |   p.Wrds <= 10
|   |   |   |   |   |   |   |   |   |   p.WrdsQt <= 17.5
|   |   |   |   |   |   |   |   |   |   |   n.AvgWrdLn <= 7.75
|   |   |   |   |   |   |   |   |   |   |   |   c.FlstpRtio <= 0.0857: 1 (1241.0/31.0)
|   |   |   |   |   |   |   |   |   |   |   |   c.FlstpRtio > 0.0857
|   |   |   |   |   |   |   |   |   |   |   |   |   p.InH = 0
|   |   |   |   |   |   |   |   |   |   |   |   |   |   c.AvgWrdLn <= 4.1154: 0 (12.0)
|   |   |   |   |   |   |   |   |   |   |   |   |   |   c.AvgWrdLn > 4.1154: 1 (87.0)
|   |   |   |   |   |   |   |   |   |   |   |   |   p.InH = 1: 3 (27.0)
|   |   |   |   |   |   |   |   |   |   |   n.AvgWrdLn > 7.75: 1 (72.0/33.0)
|   |   |   |   |   |   |   |   |   |   p.WrdsQt > 17.5: 1 (34.0/13.0)
|   |   |   |   |   |   |   |   |   p.Wrds > 10: 1 (42.0/19.0)
|   |   |   |   |   |   |   |   n.LnkDns > 0.4242
|   |   |   |   |   |   |   |   |   c.FlstpRtio <= 0.0549
|   |   |   |   |   |   |   |   |   |   n.WrdsQt <= 1.2826: 0 (55.0/6.0)
|   |   |   |   |   |   |   |   |   |   n.WrdsQt > 1.2826: 1 (26.0)
|   |   |   |   |   |   |   |   |   c.FlstpRtio > 0.0549: 2 (9.0)
|   |   |   |   |   |   |   c.RelPos > 0.885714: 0 (33.0)
|   |   |   |   |   c.LnkDns > 0.1818
|   |   |   |   |   |   p.AvgWrdLn <= 3.4138
|   |   |   |   |   |   |   c.Wrds <= 6: 0 (15.0)
|   |   |   |   |   |   |   c.Wrds > 6: 1 (20.0)
|   |   |   |   |   |   p.AvgWrdLn > 3.4138
|   |   |   |   |   |   |   n.CapWrdRtio <= 0.3661: 0 (634.0/14.0)
|   |   |   |   |   |   |   n.CapWrdRtio > 0.3661
|   |   |   |   |   |   |   |   n.AvgWrdLn <= 4.7: 1 (13.0)
|   |   |   |   |   |   |   |   n.AvgWrdLn > 4.7
|   |   |   |   |   |   |   |   |   p.TxtDnsQt <= 1.25: 0 (23.0)
|   |   |   |   |   |   |   |   |   p.TxtDnsQt > 1.25: 4 (19.0)
|   |   n.TxtDns > 20.6667
|   |   |   c.LnkDns <= 0.125
|   |   |   |   c.InH = 0
|   |   |   |   |   n.LnkDns <= 0.0123
|   |   |   |   |   |   c.FlstpRtio <= 0.0143
|   |   |   |   |   |   |   p.LnkDns <= 0.1429
|   |   |   |   |   |   |   |   n.AvgWrdLn <= 4.125: 5 (174.0/74.0)
|   |   |   |   |   |   |   |   n.AvgWrdLn > 4.125
|   |   |   |   |   |   |   |   |   p.RelPos <= 0.075949: 1 (40.0/15.0)
|   |   |   |   |   |   |   |   |   p.RelPos > 0.075949
|   |   |   |   |   |   |   |   |   |   c.Chars <= 295
|   |   |   |   |   |   |   |   |   |   |   n.TxtDnsQt <= 0.4375
|   |   |   |   |   |   |   |   |   |   |   |   c.CapWrdRtio <= 1.0909
|   |   |   |   |   |   |   |   |   |   |   |   |   p.TxtDns <= 11.5
|   |   |   |   |   |   |   |   |   |   |   |   |   |   c.RelPos <= 0.885135
|   |   |   |   |   |   |   |   |   |   |   |   |   |   |   n.FlstpRtio <= 0.1176: 3 (542.0/255.0)
|   |   |   |   |   |   |   |   |   |   |   |   |   |   |   n.FlstpRtio > 0.1176: 0 (26.0/17.0)
|   |   |   |   |   |   |   |   |   |   |   |   |   |   c.RelPos > 0.885135: 0 (18.0/6.0)
|   |   |   |   |   |   |   |   |   |   |   |   |   p.TxtDns > 11.5
|   |   |   |   |   |   |   |   |   |   |   |   |   |   p.CapWrdRtio <= 0.087
|   |   |   |   |   |   |   |   |   |   |   |   |   |   |   n.InP = 0: 5 (2.0)
|   |   |   |   |   |   |   |   |   |   |   |   |   |   |   n.InP = 1: 2 (22.0)
|   |   |   |   |   |   |   |   |   |   |   |   |   |   p.CapWrdRtio > 0.087: 5 (19.0/7.0)
|   |   |   |   |   |   |   |   |   |   |   |   c.CapWrdRtio > 1.0909
|   |   |   |   |   |   |   |   |   |   |   |   |   p.LnkDns <= 0.0411
|   |   |   |   |   |   |   |   |   |   |   |   |   |   c.AvgWrdLn <= 2.8333
|   |   |   |   |   |   |   |   |   |   |   |   |   |   |   n.InP = 0: 5 (13.0)
|   |   |   |   |   |   |   |   |   |   |   |   |   |   |   n.InP = 1: 3 (4.0)
|   |   |   |   |   |   |   |   |   |   |   |   |   |   c.AvgWrdLn > 2.8333: 3 (102.0/6.0)
|   |   |   |   |   |   |   |   |   |   |   |   |   p.LnkDns > 0.0411: 5 (6.0)
|   |   |   |   |   |   |   |   |   |   |   n.TxtDnsQt > 0.4375: 2 (44.0)
|   |   |   |   |   |   |   |   |   |   c.Chars > 295: 1 (20.0/5.0)
|   |   |   |   |   |   |   p.LnkDns > 0.1429
|   |   |   |   |   |   |   |   c.TxtDnsQt <= 1.45
|   |   |   |   |   |   |   |   |   c.RelPos <= 0.831373
|   |   |   |   |   |   |   |   |   |   p.WrdsQt <= 2.16
|   |   |   |   |   |   |   |   |   |   |   n.WrdsQt <= 0.1765: 3 (54.0/30.0)
|   |   |   |   |   |   |   |   |   |   |   n.WrdsQt > 0.1765: 1 (71.0)
|   |   |   |   |   |   |   |   |   |   p.WrdsQt > 2.16
|   |   |   |   |   |   |   |   |   |   |   p.TxtDns <= 6: 0 (5.0)
|   |   |   |   |   |   |   |   |   |   |   p.TxtDns > 6: 5 (3.0)
|   |   |   |   |   |   |   |   |   c.RelPos > 0.831373: 0 (22.0)
|   |   |   |   |   |   |   |   c.TxtDnsQt > 1.45
|   |   |   |   |   |   |   |   |   p.RelPos <= 0.245902: 2 (12.0/3.0)
|   |   |   |   |   |   |   |   |   p.RelPos > 0.245902
|   |   |   |   |   |   |   |   |   |   p.WrdsQt <= 1.0833: 0 (41.0/10.0)
|   |   |   |   |   |   |   |   |   |   p.WrdsQt > 1.0833: 5 (47.0/5.0)
|   |   |   |   |   |   c.FlstpRtio > 0.0143
|   |   |   |   |   |   |   c.WrdsQt <= 0.0526: 0 (48.0)
|   |   |   |   |   |   |   c.WrdsQt > 0.0526
|   |   |   |   |   |   |   |   p.AvgWrdLn <= 2.8333: 5 (35.0/4.0)
|   |   |   |   |   |   |   |   p.AvgWrdLn > 2.8333
|   |   |   |   |   |   |   |   |   c.CapWrdRtio <= 0.3077
|   |   |   |   |   |   |   |   |   |   c.CapStrtWrdRtio <= 0.6111
|   |   |   |   |   |   |   |   |   |   |   n.RelPos <= 0.081633: 2 (35.0/14.0)
|   |   |   |   |   |   |   |   |   |   |   n.RelPos > 0.081633
|   |   |   |   |   |   |   |   |   |   |   |   n.WrdsQt <= 0.2619
|   |   |   |   |   |   |   |   |   |   |   |   |   p.CapWrdRtio <= 0.6429: 2 (159.0/15.0)
|   |   |   |   |   |   |   |   |   |   |   |   |   p.CapWrdRtio > 0.6429: 5 (60.0)
|   |   |   |   |   |   |   |   |   |   |   |   n.WrdsQt > 0.2619: 2 (880.0/52.0)
|   |   |   |   |   |   |   |   |   |   c.CapStrtWrdRtio > 0.6111: 2 (22.0/13.0)
|   |   |   |   |   |   |   |   |   c.CapWrdRtio > 0.3077: 2 (61.0/36.0)
|   |   |   |   |   n.LnkDns > 0.0123: 0 (182.0/44.0)
|   |   |   |   c.InH = 1
|   |   |   |   |   n.LnkDns <= 0.5
|   |   |   |   |   |   c.Wrds <= 3
|   |   |   |   |   |   |   c.FlstpRtio <= 0.25
|   |   |   |   |   |   |   |   n.CapStrtWrdRtio <= 0.2708
|   |   |   |   |   |   |   |   |   p.LnkDns <= 0.4634
|   |   |   |   |   |   |   |   |   |   c.Wrds <= 1: 0 (2.0/1.0)
|   |   |   |   |   |   |   |   |   |   c.Wrds > 1: 5 (8.0)
|   |   |   |   |   |   |   |   |   p.LnkDns > 0.4634
|   |   |   |   |   |   |   |   |   |   p.WrdsQt <= 0.4138
|   |   |   |   |   |   |   |   |   |   |   c.Wrds <= 1
|   |   |   |   |   |   |   |   |   |   |   |   p.RelPos <= 0.856643: 0 (3.0)
|   |   |   |   |   |   |   |   |   |   |   |   p.RelPos > 0.856643: 5 (3.0/1.0)
|   |   |   |   |   |   |   |   |   |   |   c.Wrds > 1: 0 (2.0)
|   |   |   |   |   |   |   |   |   |   p.WrdsQt > 0.4138: 0 (10.0)
|   |   |   |   |   |   |   |   n.CapStrtWrdRtio > 0.2708: 3 (9.0/3.0)
|   |   |   |   |   |   |   c.FlstpRtio > 0.25: 2 (2.0)
|   |   |   |   |   |   c.Wrds > 3: 1 (251.0/44.0)
|   |   |   |   |   n.LnkDns > 0.5: 0 (15.0/6.0)
|   |   |   c.LnkDns > 0.125
|   |   |   |   c.CapWrdRtio <= 0.6
|   |   |   |   |   n.Chars <= 322: 0 (1432.0/237.0)
|   |   |   |   |   n.Chars > 322
|   |   |   |   |   |   p.CapWrdRtio <= 0.0833
|   |   |   |   |   |   |   p.AvgWrdLn <= 5.875: 0 (6.0)
|   |   |   |   |   |   |   p.AvgWrdLn > 5.875: 2 (3.0)
|   |   |   |   |   |   p.CapWrdRtio > 0.0833
|   |   |   |   |   |   |   c.LnkDns <= 0.6364: 3 (16.0)
|   |   |   |   |   |   |   c.LnkDns > 0.6364: 4 (24.0)
|   |   |   |   c.CapWrdRtio > 0.6
|   |   |   |   |   p.LnkDns <= 0.0714
|   |   |   |   |   |   p.InH = 0: 5 (175.0/7.0)
|   |   |   |   |   |   p.InH = 1: 3 (2.0)
|   |   |   |   |   p.LnkDns > 0.0714: 0 (48.0/3.0)
|   p.TxtDns > 15.3333
|   |   c.LnkDns <= 0.1628
|   |   |   p.LnkDns <= 0.0488
|   |   |   |   c.CapWrdRtio <= 0.625
|   |   |   |   |   n.FlstpRtio <= 0.0152
|   |   |   |   |   |   c.InH = 0
|   |   |   |   |   |   |   c.LnkDns <= 0.1053
|   |   |   |   |   |   |   |   n.RelPos <= 0.988785
|   |   |   |   |   |   |   |   |   n.WrdsQt <= 3.2857
|   |   |   |   |   |   |   |   |   |   c.InP = 0
|   |   |   |   |   |   |   |   |   |   |   n.WrdsQt <= 2.125
|   |   |   |   |   |   |   |   |   |   |   |   c.Wrds <= 6: 0 (319.0/133.0)
|   |   |   |   |   |   |   |   |   |   |   |   c.Wrds > 6
|   |   |   |   |   |   |   |   |   |   |   |   |   c.Wrds <= 13
|   |   |   |   |   |   |   |   |   |   |   |   |   |   p.RelPos <= 0.5898: 2 (34.0)
|   |   |   |   |   |   |   |   |   |   |   |   |   |   p.RelPos > 0.5898: 0 (50.0/11.0)
|   |   |   |   |   |   |   |   |   |   |   |   |   c.Wrds > 13: 3 (15.0)
|   |   |   |   |   |   |   |   |   |   |   n.WrdsQt > 2.125
|   |   |   |   |   |   |   |   |   |   |   |   p.AvgWrdLn <= 4.9176: 5 (56.0/12.0)
|   |   |   |   |   |   |   |   |   |   |   |   p.AvgWrdLn > 4.9176
|   |   |   |   |   |   |   |   |   |   |   |   |   n.LnkDns <= 0.1628: 3 (15.0)
|   |   |   |   |   |   |   |   |   |   |   |   |   n.LnkDns > 0.1628: 0 (3.0)
|   |   |   |   |   |   |   |   |   |   c.InP = 1
|   |   |   |   |   |   |   |   |   |   |   n.CapWrdRtio <= 0.6714
|   |   |   |   |   |   |   |   |   |   |   |   p.Chars <= 122
|   |   |   |   |   |   |   |   |   |   |   |   |   n.LnkDns <= 0.7222
|   |   |   |   |   |   |   |   |   |   |   |   |   |   n.Chars <= 42
|   |   |   |   |   |   |   |   |   |   |   |   |   |   |   n.CapWrdRtio <= 0.125: 2 (118.0/62.0)
|   |   |   |   |   |   |   |   |   |   |   |   |   |   |   n.CapWrdRtio > 0.125
|   |   |   |   |   |   |   |   |   |   |   |   |   |   |   |   p.CapWrdRtio <= 0.0263: 3 (8.0/2.0)
|   |   |   |   |   |   |   |   |   |   |   |   |   |   |   |   p.CapWrdRtio > 0.0263: 5 (8.0)
|   |   |   |   |   |   |   |   |   |   |   |   |   |   n.Chars > 42: 5 (74.0/9.0)
|   |   |   |   |   |   |   |   |   |   |   |   |   n.LnkDns > 0.7222: 2 (19.0/4.0)
|   |   |   |   |   |   |   |   |   |   |   |   p.Chars > 122
|   |   |   |   |   |   |   |   |   |   |   |   |   p.CapStrtWrdRtio <= 0.0588
|   |   |   |   |   |   |   |   |   |   |   |   |   |   n.LnkDns <= 0.1875: 5 (36.0)
|   |   |   |   |   |   |   |   |   |   |   |   |   |   n.LnkDns > 0.1875: 2 (20.0/2.0)
|   |   |   |   |   |   |   |   |   |   |   |   |   p.CapStrtWrdRtio > 0.0588
|   |   |   |   |   |   |   |   |   |   |   |   |   |   p.AvgWrdLn <= 3.8305: 5 (6.0)
|   |   |   |   |   |   |   |   |   |   |   |   |   |   p.AvgWrdLn > 3.8305
|   |   |   |   |   |   |   |   |   |   |   |   |   |   |   c.WrdsQt <= 4.3333: 2 (115.0)
|   |   |   |   |   |   |   |   |   |   |   |   |   |   |   c.WrdsQt > 4.3333
|   |   |   |   |   |   |   |   |   |   |   |   |   |   |   |   p.RelPos <= 0.794702
|   |   |   |   |   |   |   |   |   |   |   |   |   |   |   |   |   n.CapWrdRtio <= 0.0952: 2 (115.0/19.0)
|   |   |   |   |   |   |   |   |   |   |   |   |   |   |   |   |   n.CapWrdRtio > 0.0952: 3 (39.0/15.0)
|   |   |   |   |   |   |   |   |   |   |   |   |   |   |   |   p.RelPos > 0.794702: 3 (19.0)
|   |   |   |   |   |   |   |   |   |   |   n.CapWrdRtio > 0.6714: 5 (208.0/28.0)
|   |   |   |   |   |   |   |   |   n.WrdsQt > 3.2857
|   |   |   |   |   |   |   |   |   |   p.RelPos <= 0.93271
|   |   |   |   |   |   |   |   |   |   |   p.FlstpRtio <= 0.1143
|   |   |   |   |   |   |   |   |   |   |   |   p.Wrds <= 75
|   |   |   |   |   |   |   |   |   |   |   |   |   c.AvgWrdLn <= 5.6061: 2 (593.0/81.0)
|   |   |   |   |   |   |   |   |   |   |   |   |   c.AvgWrdLn > 5.6061
|   |   |   |   |   |   |   |   |   |   |   |   |   |   c.Chars <= 75
|   |   |   |   |   |   |   |   |   |   |   |   |   |   |   c.Wrds <= 5: 3 (8.0)
|   |   |   |   |   |   |   |   |   |   |   |   |   |   |   c.Wrds > 5: 2 (45.0)
|   |   |   |   |   |   |   |   |   |   |   |   |   |   c.Chars > 75: 3 (38.0)
|   |   |   |   |   |   |   |   |   |   |   |   p.Wrds > 75: 3 (28.0/11.0)
|   |   |   |   |   |   |   |   |   |   |   p.FlstpRtio > 0.1143: 3 (20.0)
|   |   |   |   |   |   |   |   |   |   p.RelPos > 0.93271: 3 (34.0/9.0)
|   |   |   |   |   |   |   |   n.RelPos > 0.988785: 0 (71.0)
|   |   |   |   |   |   |   c.LnkDns > 0.1053: 0 (97.0)
|   |   |   |   |   |   c.InH = 1
|   |   |   |   |   |   |   c.Wrds <= 5
|   |   |   |   |   |   |   |   p.WrdsQt <= 1.9048
|   |   |   |   |   |   |   |   |   p.AvgWrdLn <= 3.7714: 1 (2.0)
|   |   |   |   |   |   |   |   |   p.AvgWrdLn > 3.7714
|   |   |   |   |   |   |   |   |   |   p.TxtDns <= 45
|   |   |   |   |   |   |   |   |   |   |   n.TxtDnsQt <= 0.129: 4 (3.0/1.0)
|   |   |   |   |   |   |   |   |   |   |   n.TxtDnsQt > 0.129
|   |   |   |   |   |   |   |   |   |   |   |   n.RelPos <= 0.193916: 4 (3.0)
|   |   |   |   |   |   |   |   |   |   |   |   n.RelPos > 0.193916: 0 (79.0/2.0)
|   |   |   |   |   |   |   |   |   |   p.TxtDns > 45: 2 (4.0/2.0)
|   |   |   |   |   |   |   |   p.WrdsQt > 1.9048: 5 (5.0/1.0)
|   |   |   |   |   |   |   c.Wrds > 5: 1 (14.0)
|   |   |   |   |   n.FlstpRtio > 0.0152
|   |   |   |   |   |   n.Chars <= 26
|   |   |   |   |   |   |   p.InH = 0
|   |   |   |   |   |   |   |   n.InP = 0: 0 (41.0/9.0)
|   |   |   |   |   |   |   |   n.InP = 1: 5 (100.0/40.0)
|   |   |   |   |   |   |   p.InH = 1: 1 (8.0)
|   |   |   |   |   |   n.Chars > 26
|   |   |   |   |   |   |   n.LnkDns <= 0.3448
|   |   |   |   |   |   |   |   n.RelPos <= 0.932836
|   |   |   |   |   |   |   |   |   p.TxtDnsQt <= 0.0784
|   |   |   |   |   |   |   |   |   |   p.WrdsQt <= 0.0256
|   |   |   |   |   |   |   |   |   |   |   p.AvgWrdLn <= 5.0526
|   |   |   |   |   |   |   |   |   |   |   |   p.FlstpRtio <= 0.0481: 2 (2.0)
|   |   |   |   |   |   |   |   |   |   |   |   p.FlstpRtio > 0.0481: 5 (30.0)
|   |   |   |   |   |   |   |   |   |   |   p.AvgWrdLn > 5.0526: 0 (2.0)
|   |   |   |   |   |   |   |   |   |   p.WrdsQt > 0.0256: 2 (106.0/24.0)
|   |   |   |   |   |   |   |   |   p.TxtDnsQt > 0.0784
|   |   |   |   |   |   |   |   |   |   p.FlstpRtio <= 0: 2 (149.0/50.0)
|   |   |   |   |   |   |   |   |   |   p.FlstpRtio > 0
|   |   |   |   |   |   |   |   |   |   |   c.FlstpRtio <= 0.1905: 2 (3819.0/221.0)
|   |   |   |   |   |   |   |   |   |   |   c.FlstpRtio > 0.1905
|   |   |   |   |   |   |   |   |   |   |   |   n.AvgWrdLn <= 5.3913: 2 (283.0/72.0)
|   |   |   |   |   |   |   |   |   |   |   |   n.AvgWrdLn > 5.3913: 3 (47.0/20.0)
|   |   |   |   |   |   |   |   n.RelPos > 0.932836
|   |   |   |   |   |   |   |   |   c.InP = 0: 0 (67.0/3.0)
|   |   |   |   |   |   |   |   |   c.InP = 1: 2 (77.0)
|   |   |   |   |   |   |   n.LnkDns > 0.3448
|   |   |   |   |   |   |   |   c.Wrds <= 6: 0 (44.0/12.0)
|   |   |   |   |   |   |   |   c.Wrds > 6: 5 (49.0/19.0)
|   |   |   |   c.CapWrdRtio > 0.625
|   |   |   |   |   c.TxtDns <= 8.5
|   |   |   |   |   |   n.LnkDns <= 0.0164: 2 (211.0/83.0)
|   |   |   |   |   |   n.LnkDns > 0.0164
|   |   |   |   |   |   |   c.TxtDns <= 7.8333
|   |   |   |   |   |   |   |   c.FlstpRtio <= 0.8
|   |   |   |   |   |   |   |   |   c.CapWrdRtio <= 1.25
|   |   |   |   |   |   |   |   |   |   n.CapWrdRtio <= 2.5
|   |   |   |   |   |   |   |   |   |   |   c.Chars <= 9
|   |   |   |   |   |   |   |   |   |   |   |   p.CapWrdRtio <= 0.1039
|   |   |   |   |   |   |   |   |   |   |   |   |   p.TxtDns <= 20.5: 0 (8.0)
|   |   |   |   |   |   |   |   |   |   |   |   |   p.TxtDns > 20.5: 3 (4.0/1.0)
|   |   |   |   |   |   |   |   |   |   |   |   p.CapWrdRtio > 0.1039: 4 (2.0)
|   |   |   |   |   |   |   |   |   |   |   c.Chars > 9: 0 (70.0)
|   |   |   |   |   |   |   |   |   |   n.CapWrdRtio > 2.5: 3 (2.0)
|   |   |   |   |   |   |   |   |   c.CapWrdRtio > 1.25
|   |   |   |   |   |   |   |   |   |   p.InP = 0: 0 (2.0)
|   |   |   |   |   |   |   |   |   |   p.InP = 1: 3 (7.0/2.0)
|   |   |   |   |   |   |   |   c.FlstpRtio > 0.8: 3 (2.0/1.0)
|   |   |   |   |   |   |   c.TxtDns > 7.8333: 3 (12.0)
|   |   |   |   |   c.TxtDns > 8.5
|   |   |   |   |   |   c.Wrds <= 9
|   |   |   |   |   |   |   p.CapWrdRtio <= 0.1667: 5 (599.0/3.0)
|   |   |   |   |   |   |   p.CapWrdRtio > 0.1667: 0 (18.0)
|   |   |   |   |   |   c.Wrds > 9: 2 (42.0/10.0)
|   |   |   p.LnkDns > 0.0488
|   |   |   |   n.RelPos <= 0.301552
|   |   |   |   |   p.InP = 0: 0 (32.0/8.0)
|   |   |   |   |   p.InP = 1: 2 (65.0/30.0)
|   |   |   |   n.RelPos > 0.301552
|   |   |   |   |   n.Wrds <= 21
|   |   |   |   |   |   p.LnkDns <= 0.0513: 1 (11.0/1.0)
|   |   |   |   |   |   p.LnkDns > 0.0513
|   |   |   |   |   |   |   p.LnkDns <= 0.875: 0 (482.0/10.0)
|   |   |   |   |   |   |   p.LnkDns > 0.875
|   |   |   |   |   |   |   |   c.TxtDns <= 9.5: 0 (39.0/3.0)
|   |   |   |   |   |   |   |   c.TxtDns > 9.5: 5 (10.0)
|   |   |   |   |   n.Wrds > 21: 0 (56.0/30.0)
|   |   c.LnkDns > 0.1628
|   |   |   c.InH = 0
|   |   |   |   n.Wrds <= 47
|   |   |   |   |   n.AvgWrdLn <= 11.5
|   |   |   |   |   |   c.CapWrdRtio <= 1.6
|   |   |   |   |   |   |   c.FlstpRtio <= 0.1538
|   |   |   |   |   |   |   |   c.Chars <= 653
|   |   |   |   |   |   |   |   |   p.AvgWrdLn <= 4.3095: 0 (657.0/132.0)
|   |   |   |   |   |   |   |   |   p.AvgWrdLn > 4.3095
|   |   |   |   |   |   |   |   |   |   c.TxtDnsQt <= 3.8: 0 (1855.0/54.0)
|   |   |   |   |   |   |   |   |   |   c.TxtDnsQt > 3.8
|   |   |   |   |   |   |   |   |   |   |   n.CapWrdRtio <= 1.0909
|   |   |   |   |   |   |   |   |   |   |   |   n.TxtDnsQt <= 2.75
|   |   |   |   |   |   |   |   |   |   |   |   |   p.Wrds <= 72: 0 (341.0/46.0)
|   |   |   |   |   |   |   |   |   |   |   |   |   p.Wrds > 72
|   |   |   |   |   |   |   |   |   |   |   |   |   |   c.InP = 0: 0 (7.0)
|   |   |   |   |   |   |   |   |   |   |   |   |   |   c.InP = 1: 3 (8.0)
|   |   |   |   |   |   |   |   |   |   |   |   n.TxtDnsQt > 2.75: 0 (14.0/6.0)
|   |   |   |   |   |   |   |   |   |   |   n.CapWrdRtio > 1.0909: 5 (10.0/3.0)
|   |   |   |   |   |   |   |   c.Chars > 653
|   |   |   |   |   |   |   |   |   p.InP = 0: 0 (17.0/4.0)
|   |   |   |   |   |   |   |   |   p.InP = 1: 4 (20.0)
|   |   |   |   |   |   |   c.FlstpRtio > 0.1538
|   |   |   |   |   |   |   |   c.AvgWrdLn <= 5.9444: 0 (375.0/63.0)
|   |   |   |   |   |   |   |   c.AvgWrdLn > 5.9444
|   |   |   |   |   |   |   |   |   c.LnkDns <= 0.4634
|   |   |   |   |   |   |   |   |   |   c.InP = 0: 5 (53.0)
|   |   |   |   |   |   |   |   |   |   c.InP = 1: 2 (3.0/1.0)
|   |   |   |   |   |   |   |   |   c.LnkDns > 0.4634: 0 (21.0/9.0)
|   |   |   |   |   |   c.CapWrdRtio > 1.6: 5 (31.0/10.0)
|   |   |   |   |   n.AvgWrdLn > 11.5
|   |   |   |   |   |   c.AvgWrdLn <= 6.6486: 0 (22.0/11.0)
|   |   |   |   |   |   c.AvgWrdLn > 6.6486: 5 (35.0)
|   |   |   |   n.Wrds > 47
|   |   |   |   |   c.Wrds <= 4: 0 (13.0/2.0)
|   |   |   |   |   c.Wrds > 4: 5 (39.0)
|   |   |   c.InH = 1
|   |   |   |   c.Chars <= 176: 0 (127.0/26.0)
|   |   |   |   c.Chars > 176
|   |   |   |   |   p.CapWrdRtio <= 0.0656: 1 (53.0)
|   |   |   |   |   p.CapWrdRtio > 0.0656: 0 (21.0)
c.TxtDns > 15.6667
|   c.LnkDns <= 0.0645
|   |   p.LnkDns <= 0.1515
|   |   |   n.CapWrdRtio <= 0.6
|   |   |   |   n.LnkDns <= 0.25
|   |   |   |   |   n.RelPos <= 0.986068
|   |   |   |   |   |   p.Chars <= 12
|   |   |   |   |   |   |   c.TxtDnsQt <= 0.0189: 0 (244.0)
|   |   |   |   |   |   |   c.TxtDnsQt > 0.0189
|   |   |   |   |   |   |   |   p.RelPos <= 0.734127
|   |   |   |   |   |   |   |   |   p.RelPos <= 0.175926: 2 (837.0/90.0)
|   |   |   |   |   |   |   |   |   p.RelPos > 0.175926
|   |   |   |   |   |   |   |   |   |   n.InH = 0
|   |   |   |   |   |   |   |   |   |   |   c.LnkDns <= 0.027
|   |   |   |   |   |   |   |   |   |   |   |   c.CapWrdRtio <= 0.119
|   |   |   |   |   |   |   |   |   |   |   |   |   n.AvgWrdLn <= 11.5
|   |   |   |   |   |   |   |   |   |   |   |   |   |   p.FlstpRtio <= 0.575
|   |   |   |   |   |   |   |   |   |   |   |   |   |   |   n.RelPos <= 0.243671: 5 (243.0/70.0)
|   |   |   |   |   |   |   |   |   |   |   |   |   |   |   n.RelPos > 0.243671
|   |   |   |   |   |   |   |   |   |   |   |   |   |   |   |   n.LnkDns <= 0.0278
|   |   |   |   |   |   |   |   |   |   |   |   |   |   |   |   |   c.Wrds <= 87
|   |   |   |   |   |   |   |   |   |   |   |   |   |   |   |   |   |   p.RelPos <= 0.259887: 2 (305.0)
|   |   |   |   |   |   |   |   |   |   |   |   |   |   |   |   |   |   p.RelPos > 0.259887
|   |   |   |   |   |   |   |   |   |   |   |   |   |   |   |   |   |   |   n.WrdsQt <= 27
|   |   |   |   |   |   |   |   |   |   |   |   |   |   |   |   |   |   |   |   p.CapWrdRtio <= 0.8333
|   |   |   |   |   |   |   |   |   |   |   |   |   |   |   |   |   |   |   |   |   p.TxtDnsQt <= 36: 2 (2371.0/499.0)
|   |   |   |   |   |   |   |   |   |   |   |   |   |   |   |   |   |   |   |   |   p.TxtDnsQt > 36: 5 (77.0)
|   |   |   |   |   |   |   |   |   |   |   |   |   |   |   |   |   |   |   |   p.CapWrdRtio > 0.8333: 5 (1564.0/508.0)
|   |   |   |   |   |   |   |   |   |   |   |   |   |   |   |   |   |   |   n.WrdsQt > 27: 5 (250.0)
|   |   |   |   |   |   |   |   |   |   |   |   |   |   |   |   |   c.Wrds > 87: 5 (197.0)
|   |   |   |   |   |   |   |   |   |   |   |   |   |   |   |   n.LnkDns > 0.0278: 2 (288.0)
|   |   |   |   |   |   |   |   |   |   |   |   |   |   p.FlstpRtio > 0.575: 2 (364.0)
|   |   |   |   |   |   |   |   |   |   |   |   |   n.AvgWrdLn > 11.5: 0 (50.0)
|   |   |   |   |   |   |   |   |   |   |   |   c.CapWrdRtio > 0.119
|   |   |   |   |   |   |   |   |   |   |   |   |   c.InP = 0: 0 (52.0/23.0)
|   |   |   |   |   |   |   |   |   |   |   |   |   c.InP = 1: 2 (576.0)
|   |   |   |   |   |   |   |   |   |   |   c.LnkDns > 0.027: 0 (174.0/58.0)
|   |   |   |   |   |   |   |   |   |   n.InH = 1: 0 (158.0/34.0)
|   |   |   |   |   |   |   |   p.RelPos > 0.734127: 5 (1667.0/727.0)
|   |   |   |   |   |   p.Chars > 12
|   |   |   |   |   |   |   p.CapWrdRtio <= 0.625
|   |   |   |   |   |   |   |   p.Wrds <= 117
|   |   |   |   |   |   |   |   |   p.FlstpRtio <= 0.1739
|   |   |   |   |   |   |   |   |   |   p.TxtDnsQt <= 0.087: 2 (5416.0/1336.0)
|   |   |   |   |   |   |   |   |   |   p.TxtDnsQt > 0.087
|   |   |   |   |   |   |   |   |   |   |   p.TxtDns <= 5.2
|   |   |   |   |   |   |   |   |   |   |   |   n.LnkDns <= 0.2222
|   |   |   |   |   |   |   |   |   |   |   |   |   p.Chars <= 290
|   |   |   |   |   |   |   |   |   |   |   |   |   |   n.CapWrdRtio <= 0.3165
|   |   |   |   |   |   |   |   |   |   |   |   |   |   |   n.Chars <= 9
|   |   |   |   |   |   |   |   |   |   |   |   |   |   |   |   p.InP = 0: 5 (80.0/24.0)
|   |   |   |   |   |   |   |   |   |   |   |   |   |   |   |   p.InP = 1: 0 (114.0/41.0)
|   |   |   |   |   |   |   |   |   |   |   |   |   |   |   n.Chars > 9: 2 (6081.0/506.0)
|   |   |   |   |   |   |   |   |   |   |   |   |   |   n.CapWrdRtio > 0.3165: 0 (163.0/30.0)
|   |   |   |   |   |   |   |   |   |   |   |   |   p.Chars > 290: 3 (86.0/17.0)
|   |   |   |   |   |   |   |   |   |   |   |   n.LnkDns > 0.2222: 3 (94.0)
|   |   |   |   |   |   |   |   |   |   |   p.TxtDns > 5.2
|   |   |   |   |   |   |   |   |   |   |   |   n.AvgWrdLn <= 9.25
|   |   |   |   |   |   |   |   |   |   |   |   |   c.FlstpRtio <= 0: 2 (1486.0/401.0)
|   |   |   |   |   |   |   |   |   |   |   |   |   c.FlstpRtio > 0
|   |   |   |   |   |   |   |   |   |   |   |   |   |   c.CapStrtWrdRtio <= 0.3095
|   |   |   |   |   |   |   |   |   |   |   |   |   |   |   c.CapWrdRtio <= 0.4706
|   |   |   |   |   |   |   |   |   |   |   |   |   |   |   |   p.RelPos <= 0.953846
|   |   |   |   |   |   |   |   |   |   |   |   |   |   |   |   |   n.CapStrtWrdRtio <= 0.6538
|   |   |   |   |   |   |   |   |   |   |   |   |   |   |   |   |   |   n.FlstpRtio <= 0.0258: 2 (14001.0/1449.0)
|   |   |   |   |   |   |   |   |   |   |   |   |   |   |   |   |   |   n.FlstpRtio > 0.0258
|   |   |   |   |   |   |   |   |   |   |   |   |   |   |   |   |   |   |   p.Wrds <= 78
|   |   |   |   |   |   |   |   |   |   |   |   |   |   |   |   |   |   |   |   p.AvgWrdLn <= 6.0769
|   |   |   |   |   |   |   |   |   |   |   |   |   |   |   |   |   |   |   |   |   p.WrdsQt <= 0.359
|   |   |   |   |   |   |   |   |   |   |   |   |   |   |   |   |   |   |   |   |   |   n.FlstpRtio <= 0.2143
|   |   |   |   |   |   |   |   |   |   |   |   |   |   |   |   |   |   |   |   |   |   |   p.CapStrtWrdRtio <= 0.1127
|   |   |   |   |   |   |   |   |   |   |   |   |   |   |   |   |   |   |   |   |   |   |   |   n.Wrds <= 44
|   |   |   |   |   |   |   |   |   |   |   |   |   |   |   |   |   |   |   |   |   |   |   |   |   c.TxtDnsQt <= 0.2407: 5 (45.0)
|   |   |   |   |   |   |   |   |   |   |   |   |   |   |   |   |   |   |   |   |   |   |   |   |   c.TxtDnsQt > 0.2407
|   |   |   |   |   |   |   |   |   |   |   |   |   |   |   |   |   |   |   |   |   |   |   |   |   |   c.Wrds <= 95: 2 (3436.0/311.0)
|   |   |   |   |   |   |   |   |   |   |   |   |   |   |   |   |   |   |   |   |   |   |   |   |   |   c.Wrds > 95
|   |   |   |   |   |   |   |   |   |   |   |   |   |   |   |   |   |   |   |   |   |   |   |   |   |   |   p.InP = 0: 2 (111.0)
|   |   |   |   |   |   |   |   |   |   |   |   |   |   |   |   |   |   |   |   |   |   |   |   |   |   |   p.InP = 1: 5 (106.0)
|   |   |   |   |   |   |   |   |   |   |   |   |   |   |   |   |   |   |   |   |   |   |   |   n.Wrds > 44: 2 (1060.0/523.0)
|   |   |   |   |   |   |   |   |   |   |   |   |   |   |   |   |   |   |   |   |   |   |   p.CapStrtWrdRtio > 0.1127: 2 (10507.0/197.0)
|   |   |   |   |   |   |   |   |   |   |   |   |   |   |   |   |   |   |   |   |   |   n.FlstpRtio > 0.2143: 2 (180.0/57.0)
|   |   |   |   |   |   |   |   |   |   |   |   |   |   |   |   |   |   |   |   |   p.WrdsQt > 0.359
|   |   |   |   |   |   |   |   |   |   |   |   |   |   |   |   |   |   |   |   |   |   c.TxtDnsQt <= 2.5217: 2 (86575.0/2389.0)
|   |   |   |   |   |   |   |   |   |   |   |   |   |   |   |   |   |   |   |   |   |   c.TxtDnsQt > 2.5217
|   |   |   |   |   |   |   |   |   |   |   |   |   |   |   |   |   |   |   |   |   |   |   c.Wrds <= 84: 2 (393.0/17.0)
|   |   |   |   |   |   |   |   |   |   |   |   |   |   |   |   |   |   |   |   |   |   |   c.Wrds > 84: 5 (109.0)
|   |   |   |   |   |   |   |   |   |   |   |   |   |   |   |   |   |   |   |   p.AvgWrdLn > 6.0769: 2 (1718.0/258.0)
|   |   |   |   |   |   |   |   |   |   |   |   |   |   |   |   |   |   |   p.Wrds > 78
|   |   |   |   |   |   |   |   |   |   |   |   |   |   |   |   |   |   |   |   c.FlstpRtio <= 0.0824
|   |   |   |   |   |   |   |   |   |   |   |   |   |   |   |   |   |   |   |   |   p.TxtDnsQt <= 2.5
|   |   |   |   |   |   |   |   |   |   |   |   |   |   |   |   |   |   |   |   |   |   n.TxtDns <= 17.2857: 5 (260.0/123.0)
|   |   |   |   |   |   |   |   |   |   |   |   |   |   |   |   |   |   |   |   |   |   n.TxtDns > 17.2857: 2 (4949.0/185.0)
|   |   |   |   |   |   |   |   |   |   |   |   |   |   |   |   |   |   |   |   |   p.TxtDnsQt > 2.5: 5 (61.0)
|   |   |   |   |   |   |   |   |   |   |   |   |   |   |   |   |   |   |   |   c.FlstpRtio > 0.0824: 5 (284.0/104.0)
|   |   |   |   |   |   |   |   |   |   |   |   |   |   |   |   |   n.CapStrtWrdRtio > 0.6538
|   |   |   |   |   |   |   |   |   |   |   |   |   |   |   |   |   |   n.Chars <= 5: 5 (298.0/132.0)
|   |   |   |   |   |   |   |   |   |   |   |   |   |   |   |   |   |   n.Chars > 5
|   |   |   |   |   |   |   |   |   |   |   |   |   |   |   |   |   |   |   c.TxtDnsQt <= 0.1636: 5 (40.0)
|   |   |   |   |   |   |   |   |   |   |   |   |   |   |   |   |   |   |   c.TxtDnsQt > 0.1636: 2 (5869.0/276.0)
|   |   |   |   |   |   |   |   |   |   |   |   |   |   |   |   p.RelPos > 0.953846
|   |   |   |   |   |   |   |   |   |   |   |   |   |   |   |   |   p.InP = 0: 0 (65.0)
|   |   |   |   |   |   |   |   |   |   |   |   |   |   |   |   |   p.InP = 1: 2 (1154.0/267.0)
|   |   |   |   |   |   |   |   |   |   |   |   |   |   |   c.CapWrdRtio > 0.4706: 0 (89.0/9.0)
|   |   |   |   |   |   |   |   |   |   |   |   |   |   c.CapStrtWrdRtio > 0.3095: 2 (7825.0/686.0)
|   |   |   |   |   |   |   |   |   |   |   |   n.AvgWrdLn > 9.25: 2 (756.0/229.0)
|   |   |   |   |   |   |   |   |   p.FlstpRtio > 0.1739
|   |   |   |   |   |   |   |   |   |   p.FlstpRtio <= 0.575
|   |   |   |   |   |   |   |   |   |   |   c.Chars <= 540: 2 (2789.0/578.0)
|   |   |   |   |   |   |   |   |   |   |   c.Chars > 540: 5 (243.0)
|   |   |   |   |   |   |   |   |   |   p.FlstpRtio > 0.575: 0 (110.0)
|   |   |   |   |   |   |   |   p.Wrds > 117: 2 (1863.0/708.0)
|   |   |   |   |   |   |   p.CapWrdRtio > 0.625
|   |   |   |   |   |   |   |   p.LnkDns <= 0.0769
|   |   |   |   |   |   |   |   |   n.Chars <= 9: 5 (220.0/87.0)
|   |   |   |   |   |   |   |   |   n.Chars > 9: 2 (3693.0/665.0)
|   |   |   |   |   |   |   |   p.LnkDns > 0.0769: 5 (680.0)
|   |   |   |   |   n.RelPos > 0.986068: 0 (794.0/251.0)
|   |   |   |   n.LnkDns > 0.25
|   |   |   |   |   p.TxtDns <= 7.5
|   |   |   |   |   |   p.TxtDns <= 6.5
|   |   |   |   |   |   |   c.CapWrdRtio <= 0.0426
|   |   |   |   |   |   |   |   n.InP = 0: 0 (1209.0/667.0)
|   |   |   |   |   |   |   |   n.InP = 1
|   |   |   |   |   |   |   |   |   p.InH = 0: 5 (375.0/46.0)
|   |   |   |   |   |   |   |   |   p.InH = 1: 0 (65.0/31.0)
|   |   |   |   |   |   |   c.CapWrdRtio > 0.0426
|   |   |   |   |   |   |   |   p.InH = 0
|   |   |   |   |   |   |   |   |   n.InP = 0: 0 (1512.0/38.0)
|   |   |   |   |   |   |   |   |   n.InP = 1
|   |   |   |   |   |   |   |   |   |   p.InP = 0: 0 (42.0)
|   |   |   |   |   |   |   |   |   |   p.InP = 1: 2 (34.0)
|   |   |   |   |   |   |   |   p.InH = 1: 5 (62.0/16.0)
|   |   |   |   |   |   p.TxtDns > 6.5: 5 (229.0)
|   |   |   |   |   p.TxtDns > 7.5
|   |   |   |   |   |   c.CapWrdRtio <= 0.2368
|   |   |   |   |   |   |   c.AvgWrdLn <= 5.2424
|   |   |   |   |   |   |   |   n.FlstpRtio <= 0.1905: 2 (3626.0/56.0)
|   |   |   |   |   |   |   |   n.FlstpRtio > 0.1905
|   |   |   |   |   |   |   |   |   n.InP = 0: 5 (819.0/267.0)
|   |   |   |   |   |   |   |   |   n.InP = 1: 2 (353.0)
|   |   |   |   |   |   |   c.AvgWrdLn > 5.2424: 2 (377.0/173.0)
|   |   |   |   |   |   c.CapWrdRtio > 0.2368
|   |   |   |   |   |   |   p.InH = 0
|   |   |   |   |   |   |   |   p.WrdsQt <= 0.451: 0 (116.0)
|   |   |   |   |   |   |   |   p.WrdsQt > 0.451: 2 (50.0)
|   |   |   |   |   |   |   p.InH = 1: 3 (20.0)
|   |   |   n.CapWrdRtio > 0.6
|   |   |   |   p.RelPos <= 0.018182: 0 (545.0)
|   |   |   |   p.RelPos > 0.018182
|   |   |   |   |   n.TxtDns <= 8.8
|   |   |   |   |   |   c.WrdsQt <= 0.0128: 5 (296.0)
|   |   |   |   |   |   c.WrdsQt > 0.0128
|   |   |   |   |   |   |   p.InH = 0: 2 (4930.0/781.0)
|   |   |   |   |   |   |   p.InH = 1: 1 (189.0/108.0)
|   |   |   |   |   n.TxtDns > 8.8
|   |   |   |   |   |   n.Chars <= 117
|   |   |   |   |   |   |   n.CapStrtWrdRtio <= 0.1979: 2 (114.0)
|   |   |   |   |   |   |   n.CapStrtWrdRtio > 0.1979
|   |   |   |   |   |   |   |   n.Wrds <= 9: 5 (4418.0)
|   |   |   |   |   |   |   |   n.Wrds > 9: 2 (40.0)
|   |   |   |   |   |   n.Chars > 117
